3\xfcX axis acceleration,Y axis acceleration,Bicep signal,Shoulder signal,Tricep signal,Forearm signal,Bicep signal derivatives,Shoulder signal derivatives,Tricep signal derivatives,Forearm signal derivatives,Bicep signal derivative absolute values,Shoulder signal derivative absolute values,Tricep signal derivative absolute values,Forearm signal derivative absolute values,Bicep signal rolling averages,Shoulder signal rolling averages,Tricep signal rolling averages,Forearm signal rolling averages,Bicep signal divergences from rolling average,Shoulder signal divergences from rolling average,Tricep signal divergences from rolling average,Forearm signal divergences from rolling average
536,438,351,107,111,294,0,0,0,0,0,0,0,0,351,107,111,294,0,0,0,0
531,452,253,109,101,312,-98.0,2.0,-10.0,18.0,98.0,2.0,10.0,18.0,302.0,108.0,106.0,303.0,-49.0,1.0,-5.0,9.0
532,447,268,102,113,326,15.0,-7.0,12.0,14.0,15.0,7.0,12.0,14.0,290.6666666666667,106.0,108.33333333333333,310.6666666666667,-22.666666666666686,-4.0,4.666666666666671,15.333333333333314
527,445,291,122,97,335,23.0,20.0,-16.0,9.0,23.0,20.0,16.0,9.0,290.75,110.0,105.5,316.75,0.25,12.0,-8.5,18.25
518,444,251,117,115,356,-40.0,-5.0,18.0,21.0,40.0,5.0,18.0,21.0,282.8,111.4,107.4,324.6,-31.80000000000001,5.599999999999994,7.599999999999994,31.399999999999977
512,444,253,149,108,426,2.0,32.0,-7.0,70.0,2.0,32.0,7.0,70.0,277.8333333333333,117.66666666666667,107.5,341.5,-24.833333333333314,31.33333333333333,0.5,84.5
510,445,201,175,104,402,-52.0,26.0,-4.0,-24.0,52.0,26.0,4.0,24.0,266.85714285714283,125.85714285714286,107.0,350.14285714285717,-65.85714285714283,49.14285714285714,-3.0,51.85714285714283
506,443,195,169,98,404,-6.0,-6.0,-6.0,2.0,6.0,6.0,6.0,2.0,257.875,131.25,105.875,356.875,-62.875,37.75,-7.875,47.125
508,442,198,186,92,346,3.0,17.0,-6.0,-58.0,3.0,17.0,6.0,58.0,251.22222222222223,137.33333333333334,104.33333333333333,355.6666666666667,-53.22222222222223,48.66666666666666,-12.333333333333329,-9.666666666666686
507,447,168,175,101,352,-30.0,-11.0,9.0,6.0,30.0,11.0,9.0,6.0,242.9,141.1,104.0,355.3,-74.9,33.900000000000006,-3.0,-3.3000000000000114
507,442,139,183,85,361,-29.0,8.0,-16.0,9.0,29.0,8.0,16.0,9.0,233.45454545454547,144.9090909090909,102.27272727272727,355.8181818181818,-94.45454545454547,38.09090909090909,-17.272727272727266,5.181818181818187
508,449,162,179,89,357,23.0,-4.0,4.0,-4.0,23.0,4.0,4.0,4.0,227.5,147.75,101.16666666666667,355.9166666666667,-65.5,31.25,-12.166666666666671,1.0833333333333144
509,448,148,194,74,377,-14.0,15.0,-15.0,20.0,14.0,15.0,15.0,20.0,221.3846153846154,151.30769230769232,99.07692307692308,357.53846153846155,-73.38461538461539,42.69230769230768,-25.07692307692308,19.461538461538453
510,444,161,191,77,427,13.0,-3.0,3.0,50.0,13.0,3.0,3.0,50.0,217.07142857142858,154.14285714285714,97.5,362.5,-56.071428571428584,36.85714285714286,-20.5,64.5
505,437,145,194,72,418,-16.0,3.0,-5.0,-9.0,16.0,3.0,5.0,9.0,212.26666666666668,156.8,95.8,366.2,-67.26666666666668,37.19999999999999,-23.799999999999997,51.80000000000001
496,427,135,202,65,368,-10.0,8.0,-7.0,-50.0,10.0,8.0,7.0,50.0,207.4375,159.625,93.875,366.3125,-72.4375,42.375,-28.875,1.6875
492,416,142,202,64,300,7.0,0.0,-1.0,-68.0,7.0,0.0,1.0,68.0,203.58823529411765,162.11764705882354,92.11764705882354,362.4117647058824,-61.58823529411765,39.882352941176464,-28.117647058823536,-62.411764705882376
495,415,152,200,53,401,10.0,-2.0,-11.0,101.0,10.0,2.0,11.0,101.0,200.72222222222223,164.22222222222223,89.94444444444444,364.55555555555554,-48.72222222222223,35.77777777777777,-36.94444444444444,36.44444444444446
501,423,160,201,46,327,8.0,1.0,-7.0,-74.0,8.0,1.0,7.0,74.0,198.57894736842104,166.1578947368421,87.63157894736842,362.57894736842104,-38.57894736842104,34.84210526315789,-41.631578947368425,-35.57894736842104
509,404,191,202,38,265,31.0,1.0,-8.0,-62.0,31.0,1.0,8.0,62.0,198.2,167.95,85.15,357.7,-7.199999999999989,34.05000000000001,-47.150000000000006,-92.69999999999999
515,423,173,196,38,262,-18.0,-6.0,0.0,-3.0,18.0,6.0,0.0,3.0,197.0,169.28571428571428,82.9047619047619,353.14285714285717,-24.0,26.714285714285722,-44.9047619047619,-91.14285714285717
514,457,151,228,40,305,-22.0,32.0,2.0,43.0,22.0,32.0,2.0,43.0,194.9090909090909,171.95454545454547,80.95454545454545,350.95454545454544,-43.90909090909091,56.04545454545453,-40.95454545454545,-45.95454545454544
529,464,171,224,55,326,20.0,-4.0,15.0,21.0,20.0,4.0,15.0,21.0,193.8695652173913,174.2173913043478,79.82608695652173,349.8695652173913,-22.86956521739131,49.782608695652186,-24.826086956521735,-23.86956521739131
533,469,169,186,49,391,-2.0,-38.0,-6.0,65.0,2.0,38.0,6.0,65.0,192.83333333333334,174.70833333333334,78.54166666666667,351.5833333333333,-23.833333333333343,11.291666666666657,-29.54166666666667,39.416666666666686
541,477,169,240,97,438,0.0,54.0,48.0,47.0,0.0,54.0,48.0,47.0,191.88,177.32,79.28,355.04,-22.879999999999995,62.68000000000001,17.72,82.95999999999998
527,492,150,229,88,495,-19.0,-11.0,-9.0,57.0,19.0,11.0,9.0,57.0,190.26923076923077,179.30769230769232,79.61538461538461,360.4230769230769,-40.269230769230774,49.69230769230768,8.384615384615387,134.5769230769231
513,506,154,199,87,542,4.0,-30.0,-1.0,47.0,4.0,30.0,1.0,47.0,188.92592592592592,180.03703703703704,79.88888888888889,367.14814814814815,-34.925925925925924,18.962962962962962,7.111111111111114,174.85185185185185
522,506,152,213,109,614,-2.0,14.0,22.0,72.0,2.0,14.0,22.0,72.0,187.60714285714286,181.21428571428572,80.92857142857143,375.9642857142857,-35.60714285714286,31.785714285714278,28.07142857142857,238.03571428571428
532,500,144,202,122,697,-8.0,-11.0,13.0,83.0,8.0,11.0,13.0,83.0,186.10344827586206,181.93103448275863,82.34482758620689,387.0344827586207,-42.103448275862064,20.068965517241367,39.65517241379311,309.9655172413793
521,503,120,189,123,813,-24.0,-13.0,1.0,116.0,24.0,13.0,1.0,116.0,183.9,182.16666666666666,83.7,401.23333333333335,-63.900000000000006,6.833333333333343,39.3,411.76666666666665
527,485,132,170,120,773,12.0,-19.0,-3.0,-40.0,12.0,19.0,3.0,40.0,182.2258064516129,181.7741935483871,84.87096774193549,413.2258064516129,-50.2258064516129,-11.774193548387103,35.12903225806451,359.7741935483871
517,460,155,165,118,661,23.0,-5.0,-2.0,-112.0,23.0,5.0,2.0,112.0,181.375,181.25,85.90625,420.96875,-26.375,-16.25,32.09375,240.03125
518,443,227,155,119,660,72.0,-10.0,1.0,-1.0,72.0,10.0,1.0,1.0,182.75757575757575,180.45454545454547,86.9090909090909,428.2121212121212,44.24242424242425,-25.454545454545467,32.09090909090909,231.7878787878788
518,418,231,160,114,632,4.0,5.0,-5.0,-28.0,4.0,5.0,5.0,28.0,184.1764705882353,179.85294117647058,87.70588235294117,434.20588235294116,46.823529411764696,-19.85294117647058,26.294117647058826,197.79411764705884
515,396,223,136,107,637,-8.0,-24.0,-7.0,5.0,8.0,24.0,7.0,5.0,185.28571428571428,178.6,88.25714285714285,440.0,37.71428571428572,-42.599999999999994,18.742857142857147,197.0
516,378,264,124,94,582,41.0,-12.0,-13.0,-55.0,41.0,12.0,13.0,55.0,187.47222222222223,177.08333333333334,88.41666666666667,443.94444444444446,76.52777777777777,-53.08333333333334,5.583333333333329,138.05555555555554
510,364,366,141,89,558,102.0,17.0,-5.0,-24.0,102.0,17.0,5.0,24.0,192.2972972972973,176.1081081081081,88.43243243243244,447.02702702702703,173.7027027027027,-35.1081081081081,0.5675675675675649,110.97297297297297
503,353,308,129,74,493,-58.0,-12.0,-15.0,-65.0,58.0,12.0,15.0,65.0,195.3421052631579,174.8684210526316,88.05263157894737,448.2368421052632,112.65789473684211,-45.86842105263159,-14.05263157894737,44.76315789473682
504,373,282,126,62,412,-26.0,-3.0,-12.0,-81.0,26.0,3.0,12.0,81.0,197.56410256410257,173.6153846153846,87.38461538461539,447.3076923076923,84.43589743589743,-47.61538461538461,-25.384615384615387,-35.30769230769232
495,375,211,125,49,371,-71.0,-1.0,-13.0,-41.0,71.0,1.0,13.0,41.0,197.9,172.4,86.425,445.4,13.099999999999994,-47.400000000000006,-37.425,-74.39999999999998
490,366,208,120,44,400,-3.0,-5.0,-5.0,29.0,3.0,5.0,5.0,29.0,198.14634146341464,171.1219512195122,85.39024390243902,444.2926829268293,9.853658536585357,-51.1219512195122,-41.390243902439025,-44.292682926829286
490,378,186,123,36,407,-22.0,3.0,-8.0,7.0,22.0,3.0,8.0,7.0,197.85714285714286,169.97619047619048,84.21428571428571,443.4047619047619,-11.857142857142861,-46.97619047619048,-48.21428571428571,-36.404761904761926
497,387,173,129,32,311,-13.0,6.0,-4.0,-96.0,13.0,6.0,4.0,96.0,197.27906976744185,169.02325581395348,83.0,440.3255813953488,-24.279069767441854,-40.02325581395348,-51.0,-129.32558139534882
506,389,164,137,31,305,-9.0,8.0,-1.0,-6.0,9.0,8.0,1.0,6.0,196.52272727272728,168.29545454545453,81.81818181818181,437.25,-32.52272727272728,-31.295454545454533,-50.81818181818181,-132.25
507,460,147,124,36,331,-17.0,-13.0,5.0,26.0,17.0,13.0,5.0,26.0,195.42222222222222,167.3111111111111,80.8,434.8888888888889,-48.42222222222222,-43.3111111111111,-44.8,-103.88888888888891
551,439,129,152,54,344,-18.0,28.0,18.0,13.0,18.0,28.0,18.0,13.0,193.97826086956522,166.97826086956522,80.21739130434783,432.9130434782609,-64.97826086956522,-14.978260869565219,-26.217391304347828,-88.91304347826087
531,461,115,162,60,323,-14.0,10.0,6.0,-21.0,14.0,10.0,6.0,21.0,192.29787234042553,166.87234042553192,79.7872340425532,430.5744680851064,-77.29787234042553,-4.872340425531917,-19.787234042553195,-107.57446808510639
538,480,114,150,79,354,-1.0,-12.0,19.0,31.0,1.0,12.0,19.0,31.0,190.66666666666666,166.52083333333334,79.77083333333333,428.9791666666667,-76.66666666666666,-16.520833333333343,-0.7708333333333286,-74.97916666666669
516,495,150,129,82,325,36.0,-21.0,3.0,-29.0,36.0,21.0,3.0,29.0,189.83673469387756,165.75510204081633,79.81632653061224,426.85714285714283,-39.83673469387756,-36.755102040816325,2.183673469387756,-101.85714285714283
521,507,149,166,92,390,-1.0,37.0,10.0,65.0,1.0,37.0,10.0,65.0,189.02,165.76,80.06,426.12,-40.02000000000001,0.2400000000000091,11.939999999999998,-36.120000000000005
520,523,211,174,103,427,62.0,8.0,11.0,37.0,62.0,8.0,11.0,37.0,189.45098039215685,165.92156862745097,80.50980392156863,426.1372549019608,21.54901960784315,8.078431372549034,22.490196078431367,0.8627450980392268
528,526,260,211,131,452,49.0,37.0,28.0,25.0,49.0,37.0,28.0,25.0,190.80769230769232,166.78846153846155,81.48076923076923,426.63461538461536,69.19230769230768,44.21153846153845,49.519230769230774,25.36538461538464
531,526,245,206,134,525,-15.0,-5.0,3.0,73.0,15.0,5.0,3.0,73.0,191.83018867924528,167.52830188679246,82.47169811320755,428.49056603773585,53.16981132075472,38.47169811320754,51.52830188679245,96.50943396226415
529,507,237,198,162,596,-8.0,-8.0,28.0,71.0,8.0,8.0,28.0,71.0,192.66666666666666,168.09259259259258,83.94444444444444,431.5925925925926,44.33333333333334,29.90740740740742,78.05555555555556,164.4074074074074
532,499,251,175,150,574,14.0,-23.0,-12.0,-22.0,14.0,23.0,12.0,22.0,193.72727272727272,168.21818181818182,85.14545454545454,434.1818181818182,57.27272727272728,6.781818181818181,64.85454545454546,139.8181818181818
508,482,211,156,154,547,-40.0,-19.0,4.0,-27.0,40.0,19.0,4.0,27.0,194.03571428571428,168.0,86.375,436.19642857142856,16.964285714285722,-12.0,67.625,110.80357142857144
507,458,201,143,147,504,-10.0,-13.0,-7.0,-43.0,10.0,13.0,7.0,43.0,194.1578947368421,167.56140350877192,87.43859649122807,437.3859649122807,6.84210526315789,-24.561403508771917,59.56140350877193,66.61403508771929
499,441,284,138,139,475,83.0,-5.0,-8.0,-29.0,83.0,5.0,8.0,29.0,195.70689655172413,167.05172413793105,88.32758620689656,438.0344827586207,88.29310344827587,-29.051724137931046,50.672413793103445,36.9655172413793
496,426,333,138,125,463,49.0,0.0,-14.0,-12.0,49.0,0.0,14.0,12.0,198.03389830508473,166.5593220338983,88.94915254237289,438.45762711864404,134.96610169491527,-28.559322033898297,36.050847457627114,24.54237288135596
495,401,305,133,111,489,-28.0,-5.0,-14.0,26.0,28.0,5.0,14.0,26.0,199.81666666666666,166.0,89.31666666666666,439.3,105.18333333333334,-33.0,21.683333333333337,49.69999999999999
502,388,298,126,95,503,-7.0,-7.0,-16.0,14.0,7.0,7.0,16.0,14.0,201.4262295081967,165.34426229508196,89.40983606557377,440.344262295082,96.57377049180329,-39.34426229508196,5.590163934426229,62.65573770491801
505,366,320,128,84,447,22.0,2.0,-11.0,-56.0,22.0,2.0,11.0,56.0,203.33870967741936,164.74193548387098,89.3225806451613,440.4516129032258,116.66129032258064,-36.741935483870975,-5.322580645161295,6.548387096774206
505,354,300,117,68,373,-20.0,-11.0,-16.0,-74.0,20.0,11.0,16.0,74.0,204.87301587301587,163.984126984127,88.98412698412699,439.3809523809524,95.12698412698413,-46.98412698412699,-20.984126984126988,-66.38095238095241
507,363,298,131,52,443,-2.0,14.0,-16.0,70.0,2.0,14.0,16.0,70.0,206.328125,163.46875,88.40625,439.4375,91.671875,-32.46875,-36.40625,3.5625
500,371,267,126,46,354,-31.0,-5.0,-6.0,-89.0,31.0,5.0,6.0,89.0,207.26153846153846,162.8923076923077,87.75384615384615,438.12307692307695,59.738461538461536,-36.892307692307696,-41.753846153846155,-84.12307692307695
498,374,257,145,46,346,-10.0,19.0,0.0,-8.0,10.0,19.0,0.0,8.0,208.0151515151515,162.62121212121212,87.12121212121212,436.72727272727275,48.9848484848485,-17.621212121212125,-41.121212121212125,-90.72727272727275
497,389,227,124,47,329,-30.0,-21.0,1.0,-17.0,30.0,21.0,1.0,17.0,208.29850746268656,162.044776119403,86.5223880597015,435.1194029850746,18.70149253731344,-38.044776119403,-39.5223880597015,-106.1194029850746
498,381,161,115,49,347,-66.0,-9.0,2.0,18.0,66.0,9.0,2.0,18.0,207.60294117647058,161.35294117647058,85.97058823529412,433.8235294117647,-46.60294117647058,-46.35294117647058,-36.970588235294116,-86.8235294117647
505,390,127,110,51,347,-34.0,-5.0,2.0,0.0,34.0,5.0,2.0,0.0,206.43478260869566,160.6086956521739,85.46376811594203,432.5652173913044,-79.43478260869566,-50.60869565217391,-34.46376811594203,-85.56521739130437
501,415,152,101,52,435,25.0,-9.0,1.0,88.0,25.0,9.0,1.0,88.0,205.65714285714284,159.75714285714287,84.98571428571428,432.6,-53.657142857142844,-58.75714285714287,-32.98571428571428,2.3999999999999773
517,429,138,96,42,449,-14.0,-5.0,-10.0,14.0,14.0,5.0,10.0,14.0,204.70422535211267,158.85915492957747,84.38028169014085,432.83098591549293,-66.70422535211267,-62.85915492957747,-42.38028169014085,16.16901408450707
527,433,146,94,48,376,8.0,-2.0,6.0,-73.0,8.0,2.0,6.0,73.0,203.88888888888889,157.95833333333334,83.875,432.0416666666667,-57.888888888888886,-63.95833333333334,-35.875,-56.041666666666686
539,445,128,135,65,359,-18.0,41.0,17.0,-17.0,18.0,41.0,17.0,17.0,202.84931506849315,157.64383561643837,83.61643835616438,431.041095890411,-74.84931506849315,-22.643835616438366,-18.61643835616438,-72.04109589041099
523,470,155,155,79,342,27.0,20.0,14.0,-17.0,27.0,20.0,14.0,17.0,202.2027027027027,157.6081081081081,83.55405405405405,429.8378378378378,-47.20270270270271,-2.608108108108098,-4.554054054054049,-87.83783783783781
504,498,146,146,68,423,-9.0,-9.0,-11.0,81.0,9.0,9.0,11.0,81.0,201.45333333333335,157.45333333333335,83.34666666666666,429.74666666666667,-55.45333333333335,-11.453333333333347,-15.346666666666664,-6.74666666666667
508,515,127,125,81,386,-19.0,-21.0,13.0,-37.0,19.0,21.0,13.0,37.0,200.47368421052633,157.02631578947367,83.3157894736842,429.17105263157896,-73.47368421052633,-32.02631578947367,-2.3157894736842053,-43.17105263157896
507,517,128,121,114,384,1.0,-4.0,33.0,-2.0,1.0,4.0,33.0,2.0,199.53246753246754,156.55844155844156,83.71428571428571,428.5844155844156,-71.53246753246754,-35.55844155844156,30.285714285714292,-44.58441558441558
514,522,125,108,135,495,-3.0,-13.0,21.0,111.0,3.0,13.0,21.0,111.0,198.57692307692307,155.93589743589743,84.37179487179488,429.43589743589746,-73.57692307692307,-47.93589743589743,50.628205128205124,65.56410256410254
518,526,126,115,154,494,1.0,7.0,19.0,-1.0,1.0,7.0,19.0,1.0,197.65822784810126,155.41772151898735,85.25316455696202,430.253164556962,-71.65822784810126,-40.41772151898735,68.74683544303798,63.74683544303798
516,524,151,142,163,522,25.0,27.0,9.0,28.0,25.0,27.0,9.0,28.0,197.075,155.25,86.225,431.4,-46.07499999999999,-13.25,76.775,90.60000000000002
506,511,206,127,174,451,55.0,-15.0,11.0,-71.0,55.0,15.0,11.0,71.0,197.1851851851852,154.90123456790124,87.30864197530865,431.641975308642,8.81481481481481,-27.90123456790124,86.69135802469135,19.358024691358025
529,497,245,144,185,471,39.0,17.0,11.0,20.0,39.0,17.0,11.0,20.0,197.76829268292684,154.76829268292684,88.5,432.1219512195122,47.23170731707316,-10.768292682926841,96.5,38.8780487804878
514,470,220,133,184,461,-25.0,-11.0,-1.0,-10.0,25.0,11.0,1.0,10.0,198.03614457831324,154.50602409638554,89.65060240963855,432.4698795180723,21.96385542168676,-21.506024096385545,94.34939759036145,28.530120481927725
522,446,221,112,187,473,1.0,-21.0,3.0,12.0,1.0,21.0,3.0,12.0,198.3095238095238,154.0,90.80952380952381,432.95238095238096,22.690476190476204,-42.0,96.19047619047619,40.04761904761904
501,416,248,133,174,490,27.0,21.0,-13.0,17.0,27.0,21.0,13.0,17.0,198.89411764705883,153.75294117647059,91.78823529411764,433.6235294117647,49.105882352941165,-20.752941176470586,82.21176470588236,56.37647058823529
506,393,284,138,159,428,36.0,5.0,-15.0,-62.0,36.0,5.0,15.0,62.0,199.88372093023256,153.56976744186048,92.56976744186046,433.5581395348837,84.11627906976744,-15.569767441860478,66.43023255813954,-5.558139534883708
511,388,277,131,149,495,-7.0,-7.0,-10.0,67.0,7.0,7.0,10.0,67.0,200.77011494252875,153.31034482758622,93.2183908045977,434.264367816092,76.22988505747125,-22.31034482758622,55.7816091954023,60.735632183908024
508,372,339,116,126,516,62.0,-15.0,-23.0,21.0,62.0,15.0,23.0,21.0,202.3409090909091,152.88636363636363,93.5909090909091,435.1931818181818,136.6590909090909,-36.886363636363626,32.40909090909091,80.80681818181819
512,357,341,129,103,579,2.0,13.0,-23.0,63.0,2.0,13.0,23.0,63.0,203.8988764044944,152.61797752808988,93.69662921348315,436.80898876404495,137.1011235955056,-23.61797752808988,9.303370786516851,142.19101123595505
511,349,317,114,83,545,-24.0,-15.0,-20.0,-34.0,24.0,15.0,20.0,34.0,205.15555555555557,152.1888888888889,93.57777777777778,438.0111111111111,111.84444444444443,-38.1888888888889,-10.577777777777783,106.98888888888888
511,351,295,117,63,521,-22.0,3.0,-20.0,-24.0,22.0,3.0,20.0,24.0,206.14285714285714,151.8021978021978,93.24175824175825,438.9230769230769,88.85714285714286,-34.80219780219781,-30.241758241758248,82.0769230769231
512,369,275,108,52,434,-20.0,-9.0,-11.0,-87.0,20.0,9.0,11.0,87.0,206.8913043478261,151.32608695652175,92.79347826086956,438.8695652173913,68.1086956521739,-43.32608695652175,-40.79347826086956,-4.869565217391312
512,375,237,114,49,460,-38.0,6.0,-3.0,26.0,38.0,6.0,3.0,26.0,207.21505376344086,150.9247311827957,92.3225806451613,439.0967741935484,29.784946236559136,-36.92473118279571,-43.322580645161295,20.903225806451587
521,397,221,116,38,435,-16.0,2.0,-11.0,-25.0,16.0,2.0,11.0,25.0,207.36170212765958,150.5531914893617,91.74468085106383,439.0531914893617,13.638297872340416,-34.553191489361694,-53.74468085106383,-4.053191489361723
524,420,194,100,36,364,-27.0,-16.0,-2.0,-71.0,27.0,16.0,2.0,71.0,207.22105263157894,150.02105263157895,91.15789473684211,438.2631578947368,-13.221052631578942,-50.021052631578954,-55.15789473684211,-74.26315789473682
522,413,155,97,33,296,-39.0,-3.0,-3.0,-68.0,39.0,3.0,3.0,68.0,206.67708333333334,149.46875,90.55208333333333,436.78125,-51.67708333333334,-52.46875,-57.55208333333333,-140.78125
529,419,152,92,34,282,-3.0,-5.0,1.0,-14.0,3.0,5.0,1.0,14.0,206.11340206185568,148.8762886597938,89.96907216494846,435.1855670103093,-54.11340206185568,-56.8762886597938,-55.96907216494846,-153.18556701030928
535,441,128,100,53,248,-24.0,8.0,19.0,-34.0,24.0,8.0,19.0,34.0,205.31632653061226,148.37755102040816,89.59183673469387,433.2755102040816,-77.31632653061226,-48.37755102040816,-36.59183673469387,-185.27551020408163
498,475,125,125,87,295,-3.0,25.0,34.0,47.0,3.0,25.0,34.0,47.0,204.5050505050505,148.14141414141415,89.56565656565657,431.8787878787879,-79.50505050505049,-23.141414141414145,-2.5656565656565675,-136.87878787878788
510,477,198,148,85,349,73.0,23.0,-2.0,54.0,73.0,23.0,2.0,54.0,202.95959595959596,148.55555555555554,89.3030303030303,432.4343434343434,-4.9595959595959584,-0.5555555555555429,-4.303030303030297,-83.43434343434342
543,493,209,140,119,355,11.0,-8.0,34.0,6.0,11.0,8.0,34.0,6.0,202.5151515151515,148.86868686868686,89.48484848484848,432.8686868686869,6.484848484848499,-8.868686868686865,29.515151515151516,-77.8686868686869
535,509,198,182,141,398,-11.0,42.0,22.0,43.0,11.0,42.0,22.0,43.0,201.8080808080808,149.67676767676767,89.76767676767676,433.5959595959596,-3.8080808080808026,32.32323232323233,51.23232323232324,-35.595959595959584
519,543,214,168,178,622,16.0,-14.0,37.0,224.0,16.0,14.0,37.0,224.0,201.03030303030303,150.14141414141415,90.58585858585859,436.4949494949495,12.969696969696969,17.858585858585855,87.41414141414141,185.50505050505052
528,549,235,167,207,509,21.0,-1.0,29.0,-113.0,21.0,1.0,29.0,113.0,200.86868686868686,150.64646464646464,91.51515151515152,438.04040404040404,34.131313131313135,16.353535353535364,115.48484848484848,70.95959595959596
526,544,227,173,199,557,-8.0,6.0,-8.0,48.0,8.0,6.0,8.0,48.0,200.6060606060606,150.88888888888889,92.43434343434343,439.3636363636364,26.393939393939405,22.111111111111114,106.56565656565657,117.63636363636363
517,525,223,203,192,661,-4.0,30.0,-7.0,104.0,4.0,30.0,7.0,104.0,200.82828282828282,151.17171717171718,93.32323232323232,441.979797979798,22.171717171717177,51.82828282828282,98.67676767676768,219.02020202020202
526,490,219,181,195,736,-4.0,-22.0,3.0,75.0,4.0,22.0,3.0,75.0,201.07070707070707,151.2929292929293,94.3030303030303,445.3333333333333,17.929292929292927,29.7070707070707,100.6969696969697,290.6666666666667
510,488,231,205,172,707,12.0,24.0,-23.0,-29.0,12.0,24.0,23.0,29.0,201.40404040404042,151.4848484848485,95.11111111111111,448.979797979798,29.595959595959584,53.5151515151515,76.88888888888889,258.020202020202
539,454,232,188,155,615,1.0,-17.0,-17.0,-92.0,1.0,17.0,17.0,92.0,202.05050505050505,151.6161616161616,95.65656565656566,451.6363636363636,29.949494949494948,36.383838383838395,59.34343434343434,163.36363636363637
515,426,235,152,136,643,3.0,-36.0,-19.0,28.0,3.0,36.0,19.0,28.0,203.02020202020202,151.3030303030303,96.17171717171718,454.4848484848485,31.97979797979798,0.6969696969696884,39.82828282828282,188.5151515151515
497,408,247,144,119,549,12.0,-8.0,-17.0,-94.0,12.0,8.0,17.0,94.0,203.87878787878788,150.94949494949495,96.47474747474747,456.42424242424244,43.121212121212125,-6.949494949494948,22.525252525252526,92.57575757575756
504,392,293,132,109,643,46.0,-12.0,-10.0,94.0,46.0,12.0,10.0,94.0,205.34343434343435,150.32323232323233,96.82828282828282,459.1111111111111,87.65656565656565,-18.323232323232332,12.171717171717177,183.8888888888889
514,361,423,133,86,591,130.0,1.0,-23.0,-52.0,130.0,1.0,23.0,52.0,207.989898989899,149.73737373737373,96.91919191919192,460.7676767676768,215.010101010101,-16.73737373737373,-10.919191919191917,130.2323232323232
523,332,386,128,69,561,-37.0,-5.0,-17.0,-30.0,37.0,5.0,17.0,30.0,210.42424242424244,149.07070707070707,96.88888888888889,462.2121212121212,175.57575757575756,-21.070707070707073,-27.888888888888886,98.78787878787881
522,334,357,144,61,522,-29.0,16.0,-8.0,-39.0,29.0,16.0,8.0,39.0,212.66666666666666,148.4848484848485,96.84848484848484,463.7676767676768,144.33333333333334,-4.484848484848499,-35.848484848484844,58.23232323232321
516,328,296,150,59,478,-61.0,6.0,-2.0,-44.0,61.0,6.0,2.0,44.0,214.22222222222223,147.95959595959596,96.79797979797979,465.5656565656566,81.77777777777777,2.0404040404040416,-37.79797979797979,12.434343434343418
511,345,298,144,52,422,2.0,-6.0,-7.0,-56.0,2.0,6.0,7.0,56.0,215.6969696969697,147.3939393939394,96.78787878787878,465.77777777777777,82.30303030303031,-3.393939393939405,-44.78787878787878,-43.77777777777777
507,387,294,132,58,407,-4.0,-12.0,6.0,-15.0,4.0,12.0,6.0,15.0,217.05050505050505,146.6969696969697,96.9090909090909,466.5858585858586,76.94949494949495,-14.696969696969688,-38.90909090909091,-59.5858585858586
496,395,252,133,57,381,-42.0,1.0,-1.0,-26.0,42.0,1.0,1.0,26.0,217.66666666666666,146.0,97.1010101010101,467.75757575757575,34.33333333333334,-13.0,-40.101010101010104,-86.75757575757575
492,373,184,123,56,356,-68.0,-10.0,-1.0,-25.0,68.0,10.0,1.0,25.0,217.77777777777777,145.26262626262627,97.28282828282828,468.7070707070707,-33.77777777777777,-22.26262626262627,-41.28282828282828,-112.70707070707073
500,381,149,124,49,351,-35.0,1.0,-7.0,-5.0,35.0,1.0,7.0,5.0,217.75757575757575,144.21212121212122,97.37373737373737,469.17171717171715,-68.75757575757575,-20.212121212121218,-48.37373737373737,-118.17171717171715
509,435,139,110,53,339,-10.0,-14.0,4.0,-12.0,10.0,14.0,4.0,12.0,217.43434343434345,143.06060606060606,97.35353535353535,469.3030303030303,-78.43434343434345,-33.06060606060606,-44.35353535353535,-130.3030303030303
502,490,145,110,59,301,6.0,0.0,6.0,-38.0,6.0,0.0,6.0,38.0,217.1919191919192,142.2929292929293,97.45454545454545,468.3939393939394,-72.1919191919192,-32.2929292929293,-38.45454545454545,-167.39393939393938
524,448,143,107,61,356,-2.0,-3.0,2.0,55.0,2.0,3.0,2.0,55.0,216.92929292929293,140.94949494949495,97.0909090909091,467.5656565656566,-73.92929292929293,-33.94949494949495,-36.09090909090909,-111.56565656565658
517,497,175,117,76,388,32.0,10.0,15.0,32.0,32.0,10.0,15.0,32.0,217.1818181818182,139.8181818181818,96.96969696969697,466.4848484848485,-42.18181818181819,-22.818181818181813,-20.96969696969697,-78.4848484848485
541,497,161,119,83,561,-14.0,2.0,7.0,173.0,14.0,2.0,7.0,173.0,217.25252525252526,139.010101010101,96.92929292929293,466.67676767676767,-56.25252525252526,-20.01010101010101,-13.929292929292927,94.32323232323233
501,538,184,153,122,620,23.0,34.0,39.0,59.0,23.0,34.0,39.0,59.0,217.57575757575756,138.40404040404042,97.06060606060606,466.73737373737373,-33.575757575757564,14.595959595959584,24.939393939393938,153.26262626262627
530,546,218,161,115,721,34.0,8.0,-7.0,101.0,34.0,8.0,7.0,101.0,218.32323232323233,137.989898989899,96.98989898989899,466.979797979798,-0.3232323232323324,23.01010101010101,18.01010101010101,254.02020202020202
516,559,193,151,156,637,-25.0,-10.0,41.0,-84.0,25.0,10.0,41.0,84.0,219.06060606060606,137.6060606060606,97.32323232323232,465.2020202020202,-26.060606060606062,13.393939393939405,58.67676767676768,171.7979797979798
535,538,188,146,164,594,-5.0,-5.0,8.0,-43.0,5.0,5.0,8.0,43.0,219.62626262626262,137.36363636363637,97.76767676767676,463.3939393939394,-31.626262626262616,8.636363636363626,66.23232323232324,130.60606060606062
525,515,183,140,196,619,-5.0,-6.0,32.0,25.0,5.0,6.0,32.0,25.0,219.9090909090909,137.11111111111111,98.55555555555556,462.969696969697,-36.90909090909091,2.8888888888888857,97.44444444444444,156.030303030303
515,501,168,161,173,673,-15.0,21.0,-23.0,54.0,15.0,21.0,23.0,54.0,219.31313131313132,137.17171717171718,99.1010101010101,463.1010101010101,-51.31313131313132,23.828282828282823,73.8989898989899,209.8989898989899
512,463,145,148,159,550,-23.0,-13.0,-14.0,-123.0,23.0,13.0,14.0,123.0,218.44444444444446,137.05050505050505,99.55555555555556,462.27272727272725,-73.44444444444446,10.949494949494948,59.44444444444444,87.72727272727275
513,446,188,147,145,526,43.0,-1.0,-14.0,-24.0,43.0,1.0,14.0,24.0,218.0909090909091,137.16161616161617,99.93939393939394,461.1515151515151,-30.090909090909093,9.838383838383834,45.06060606060606,64.84848484848487
494,435,262,150,126,467,74.0,3.0,-19.0,-59.0,74.0,3.0,19.0,59.0,218.07070707070707,137.42424242424244,100.26262626262626,459.989898989899,43.92929292929293,12.575757575757564,25.737373737373744,7.010101010100982
500,416,307,139,114,439,45.0,-11.0,-12.0,-28.0,45.0,11.0,12.0,28.0,217.4747474747475,137.40404040404042,100.51515151515152,458.7878787878788,89.52525252525251,1.5959595959595845,13.484848484848484,-19.78787878787881
498,402,380,136,88,579,73.0,-3.0,-26.0,140.0,73.0,3.0,26.0,140.0,218.2020202020202,137.4747474747475,100.65656565656566,459.65656565656565,161.7979797979798,-1.4747474747474882,-12.656565656565661,119.34343434343435
504,402,369,142,70,607,-11.0,6.0,-18.0,28.0,11.0,6.0,18.0,28.0,219.08080808080808,137.63636363636363,100.73737373737374,461.62626262626264,149.91919191919192,4.363636363636374,-30.737373737373744,145.37373737373736
493,388,382,136,69,638,13.0,-6.0,-1.0,31.0,13.0,6.0,1.0,31.0,220.8080808080808,137.74747474747474,100.93939393939394,464.32323232323233,161.1919191919192,-1.7474747474747403,-31.939393939393938,173.67676767676767
489,368,385,133,66,638,3.0,-3.0,-3.0,0.0,3.0,3.0,3.0,0.0,222.59595959595958,137.87878787878788,101.16161616161617,466.72727272727275,162.40404040404042,-4.878787878787875,-35.161616161616166,171.27272727272725
484,363,323,128,62,523,-62.0,-5.0,-4.0,-115.0,62.0,5.0,4.0,115.0,223.97979797979798,137.92929292929293,101.42424242424242,467.8989898989899,99.02020202020202,-9.929292929292927,-39.42424242424242,55.101010101010104
486,372,324,114,57,448,1.0,-14.0,-5.0,-75.0,1.0,14.0,5.0,75.0,225.5050505050505,137.77777777777777,101.67676767676768,469.2828282828283,98.49494949494951,-23.77777777777777,-44.67676767676768,-21.28282828282829
485,382,362,112,55,394,38.0,-2.0,-2.0,-54.0,38.0,2.0,2.0,54.0,227.5050505050505,137.5252525252525,101.91919191919192,470.1818181818182,134.4949494949495,-25.52525252525251,-46.91919191919192,-76.18181818181819
490,381,326,112,53,433,-36.0,0.0,-2.0,39.0,36.0,0.0,2.0,39.0,229.31313131313132,137.40404040404042,102.0909090909091,471.2121212121212,96.68686868686868,-25.404040404040416,-49.09090909090909,-38.21212121212119
498,386,257,97,61,359,-69.0,-15.0,8.0,-74.0,69.0,15.0,8.0,74.0,230.6060606060606,136.84848484848484,102.16161616161617,471.3636363636364,26.393939393939405,-39.848484848484844,-41.161616161616166,-112.36363636363637
509,394,205,94,60,335,-52.0,-3.0,-1.0,-24.0,52.0,3.0,1.0,24.0,231.5151515151515,136.16161616161617,102.16161616161617,471.4848484848485,-26.5151515151515,-42.161616161616166,-42.161616161616166,-136.4848484848485
512,397,165,91,49,270,-40.0,-3.0,-11.0,-65.0,40.0,3.0,11.0,65.0,232.03030303030303,135.56565656565655,101.85858585858585,470.6363636363636,-67.03030303030303,-44.56565656565655,-52.858585858585855,-200.63636363636363
516,415,212,103,70,292,47.0,12.0,21.0,22.0,47.0,12.0,21.0,22.0,232.65656565656565,135.3030303030303,101.73737373737374,470.3030303030303,-20.656565656565647,-32.30303030303031,-31.737373737373744,-178.3030303030303
518,420,169,103,66,225,-43.0,0.0,-4.0,-67.0,43.0,0.0,4.0,67.0,232.85858585858585,134.66666666666666,101.47474747474747,468.6363636363636,-63.858585858585855,-31.666666666666657,-35.474747474747474,-243.63636363636363
505,421,142,95,64,179,-27.0,-8.0,-2.0,-46.0,27.0,8.0,2.0,46.0,232.16161616161617,133.86868686868686,101.08080808080808,466.1313131313131,-90.16161616161617,-38.868686868686865,-37.08080808080808,-287.1313131313131
489,472,147,100,53,209,5.0,5.0,-11.0,30.0,5.0,5.0,11.0,30.0,231.02020202020202,132.74747474747474,100.29292929292929,463.67676767676767,-84.02020202020202,-32.74747474747474,-47.29292929292929,-254.67676767676767
499,497,138,93,50,178,-9.0,-7.0,-3.0,-31.0,9.0,7.0,3.0,31.0,229.93939393939394,131.6060606060606,99.44444444444444,460.17171717171715,-91.93939393939394,-38.606060606060595,-49.44444444444444,-282.17171717171715
551,488,129,86,63,305,-9.0,-7.0,13.0,127.0,9.0,7.0,13.0,127.0,228.84848484848484,130.4747474747475,98.44444444444444,457.2323232323232,-99.84848484848484,-44.47474747474749,-35.44444444444444,-152.2323232323232
517,513,198,112,84,304,69.0,26.0,21.0,-1.0,69.0,26.0,21.0,1.0,228.31313131313132,129.83838383838383,97.77777777777777,454.5050505050505,-30.313131313131322,-17.838383838383834,-13.777777777777771,-150.50505050505052
533,539,168,109,121,325,-30.0,-3.0,37.0,21.0,30.0,3.0,37.0,21.0,227.87878787878788,129.36363636363637,97.44444444444444,452.26262626262627,-59.878787878787875,-20.363636363636374,23.555555555555557,-127.26262626262627
504,527,198,99,170,317,30.0,-10.0,49.0,-8.0,30.0,10.0,49.0,8.0,227.84848484848484,128.91919191919192,97.67676767676768,450.37373737373736,-29.848484848484844,-29.919191919191917,72.32323232323232,-133.37373737373736
542,532,151,116,178,354,-47.0,17.0,8.0,37.0,47.0,17.0,8.0,37.0,226.5050505050505,128.6969696969697,98.07070707070707,449.1515151515151,-75.50505050505049,-12.696969696969688,79.92929292929293,-95.15151515151513
528,540,152,140,186,400,1.0,24.0,8.0,46.0,1.0,24.0,8.0,46.0,224.67676767676767,128.7171717171717,98.68686868686869,448.5151515151515,-72.67676767676767,11.28282828282829,87.31313131313131,-48.5151515151515
512,539,168,129,202,450,16.0,-11.0,16.0,50.0,16.0,11.0,16.0,50.0,223.2929292929293,128.67676767676767,99.60606060606061,448.1212121212121,-55.2929292929293,0.3232323232323324,102.39393939393939,1.8787878787878753
529,524,148,133,192,615,-20.0,4.0,-10.0,165.0,20.0,4.0,10.0,165.0,221.77777777777777,128.74747474747474,100.58585858585859,449.25252525252523,-73.77777777777777,4.25252525252526,91.41414141414141,165.74747474747477
535,506,178,123,194,684,30.0,-10.0,2.0,69.0,30.0,10.0,2.0,69.0,220.34343434343435,128.6969696969697,101.6969696969697,451.64646464646466,-42.34343434343435,-5.696969696969688,92.3030303030303,232.35353535353534
513,496,228,119,170,682,50.0,-4.0,-24.0,-2.0,50.0,4.0,24.0,2.0,219.6161616161616,128.7171717171717,102.72727272727273,454.7676767676768,8.383838383838395,-9.71717171717171,67.27272727272727,227.2323232323232
521,467,292,134,163,519,64.0,15.0,-7.0,-163.0,64.0,15.0,7.0,163.0,219.55555555555554,128.74747474747474,103.84848484848484,455.5353535353535,72.44444444444446,5.25252525252526,59.151515151515156,63.46464646464648
532,454,360,166,144,535,68.0,32.0,-19.0,16.0,68.0,32.0,19.0,16.0,220.4949494949495,129.15151515151516,104.83838383838383,457.3636363636364,139.5050505050505,36.848484848484844,39.161616161616166,77.63636363636363
498,443,324,204,129,607,-36.0,38.0,-15.0,72.0,36.0,38.0,15.0,72.0,221.17171717171718,129.74747474747474,105.67676767676768,460.0,102.82828282828282,74.25252525252526,23.323232323232318,147.0
511,459,260,170,103,577,-64.0,-34.0,-26.0,-30.0,64.0,34.0,26.0,30.0,221.5050505050505,130.21212121212122,106.24242424242425,462.5050505050505,38.49494949494951,39.78787878787878,-3.2424242424242493,114.49494949494948
522,459,208,152,85,513,-52.0,-18.0,-18.0,-64.0,52.0,18.0,18.0,64.0,221.97979797979798,130.58585858585857,106.60606060606061,464.1818181818182,-13.97979797979798,21.414141414141426,-21.60606060606061,48.81818181818181
511,432,326,136,73,520,118.0,-16.0,-12.0,7.0,118.0,16.0,12.0,7.0,223.989898989899,130.84848484848484,106.82828282828282,465.92929292929296,102.01010101010101,5.151515151515156,-33.82828282828282,54.070707070707044
511,432,262,120,57,491,-64.0,-16.0,-16.0,-29.0,64.0,16.0,16.0,29.0,225.1010101010101,131.04040404040404,106.87878787878788,466.4949494949495,36.898989898989896,-11.040404040404042,-49.878787878787875,24.50505050505052
505,420,202,146,63,452,-60.0,26.0,6.0,-39.0,60.0,26.0,6.0,39.0,225.74747474747474,131.54545454545453,107.0909090909091,466.52525252525254,-23.74747474747474,14.454545454545467,-44.09090909090909,-14.52525252525254
503,412,211,143,79,428,9.0,-3.0,16.0,-24.0,9.0,3.0,16.0,24.0,226.40404040404042,132.04040404040404,107.4040404040404,467.050505050505,-15.404040404040416,10.959595959595958,-28.4040404040404,-39.05050505050502
501,406,211,120,94,422,0.0,-23.0,15.0,-6.0,0.0,23.0,15.0,6.0,227.24242424242425,131.88888888888889,107.6969696969697,467.6868686868687,-16.24242424242425,-11.888888888888886,-13.696969696969703,-45.686868686868706
503,390,212,124,108,611,1.0,4.0,14.0,189.0,1.0,4.0,14.0,189.0,227.8181818181818,131.57575757575756,107.98989898989899,470.4040404040404,-15.818181818181813,-7.575757575757564,0.010101010101010388,140.59595959595958
520,361,207,113,148,688,-5.0,-11.0,40.0,77.0,5.0,11.0,40.0,77.0,228.43434343434345,131.24242424242425,108.79797979797979,473.0808080808081,-21.434343434343447,-18.24242424242425,39.20202020202021,214.91919191919192
542,373,208,109,175,808,1.0,-4.0,27.0,120.0,1.0,4.0,27.0,120.0,229.25252525252526,131.08080808080808,109.74747474747475,477.34343434343435,-21.25252525252526,-22.080808080808083,65.25252525252525,330.65656565656565
541,384,202,113,201,755,-6.0,4.0,26.0,-53.0,6.0,4.0,26.0,53.0,230.0,131.0,110.62626262626263,481.09090909090907,-28.0,-18.0,90.37373737373737,273.90909090909093
538,384,203,111,224,654,1.0,-2.0,23.0,-101.0,1.0,2.0,23.0,101.0,230.78787878787878,131.03030303030303,111.52525252525253,482.6969696969697,-27.787878787878782,-20.03030303030303,112.47474747474747,171.3030303030303
544,384,240,130,246,600,37.0,19.0,22.0,-54.0,37.0,19.0,22.0,54.0,231.93939393939394,131.1818181818182,112.45454545454545,483.7676767676768,8.060606060606062,-1.181818181818187,133.54545454545456,116.23232323232321
531,393,212,154,242,486,-28.0,24.0,-4.0,-114.0,28.0,24.0,4.0,114.0,232.55555555555554,131.3030303030303,113.25252525252525,483.4040404040404,-20.555555555555543,22.69696969696969,128.74747474747477,2.5959595959595845
527,376,227,147,264,346,15.0,-7.0,22.0,-140.0,15.0,7.0,22.0,140.0,232.76767676767676,131.5050505050505,114.16161616161617,482.34343434343435,-5.767676767676761,15.494949494949509,149.83838383838383,-136.34343434343435
517,410,194,147,231,355,-33.0,0.0,-33.0,9.0,33.0,0.0,33.0,9.0,232.25252525252526,131.53535353535352,114.62626262626263,481.17171717171715,-38.25252525252526,15.464646464646478,116.37373737373737,-126.17171717171715
526,431,165,144,212,274,-29.0,-3.0,-19.0,-81.0,29.0,3.0,19.0,81.0,231.6969696969697,131.64646464646464,114.9090909090909,479.2828282828283,-66.69696969696969,12.353535353535364,97.0909090909091,-205.2828282828283
513,416,157,128,163,223,-8.0,-16.0,-49.0,-51.0,8.0,16.0,49.0,51.0,231.05050505050505,131.8080808080808,114.66666666666667,476.75757575757575,-74.05050505050505,-3.8080808080808026,48.33333333333333,-253.75757575757575
489,479,119,128,146,316,-38.0,0.0,-17.0,93.0,38.0,0.0,17.0,93.0,229.74747474747474,131.75757575757575,114.38383838383838,475.0,-110.74747474747474,-3.7575757575757507,31.61616161616162,-159.0
549,464,121,119,122,279,2.0,-9.0,-24.0,-37.0,2.0,9.0,24.0,37.0,228.1010101010101,131.56565656565655,114.01010101010101,473.4949494949495,-107.1010101010101,-12.565656565656553,7.98989898989899,-194.49494949494948
504,493,149,105,112,299,28.0,-14.0,-10.0,20.0,28.0,14.0,10.0,20.0,226.8080808080808,131.3030303030303,113.63636363636364,471.5151515151515,-77.8080808080808,-26.30303030303031,-1.6363636363636402,-172.5151515151515
530,501,134,113,93,305,-15.0,8.0,-19.0,6.0,15.0,8.0,19.0,6.0,224.73737373737373,131.27272727272728,113.3030303030303,469.3838383838384,-90.73737373737373,-18.27272727272728,-20.303030303030297,-164.3838383838384
497,520,117,114,92,380,-17.0,1.0,-1.0,75.0,17.0,1.0,1.0,75.0,222.4747474747475,131.12121212121212,113.1919191919192,467.37373737373736,-105.47474747474749,-17.121212121212125,-21.191919191919197,-87.37373737373736
491,509,179,122,116,350,62.0,8.0,24.0,-30.0,62.0,8.0,24.0,30.0,221.08080808080808,131.2020202020202,113.52525252525253,465.4040404040404,-42.08080808080808,-9.202020202020208,2.474747474747474,-115.40404040404042
500,526,166,114,145,496,-13.0,-8.0,29.0,146.0,13.0,8.0,29.0,146.0,219.77777777777777,131.17171717171718,114.35353535353535,465.1515151515151,-53.77777777777777,-17.171717171717177,30.64646464646465,30.848484848484873
511,517,213,134,137,521,47.0,20.0,-8.0,25.0,47.0,20.0,8.0,25.0,219.15151515151516,131.43434343434345,115.21212121212122,466.030303030303,-6.151515151515156,2.5656565656565533,21.787878787878782,54.969696969697
503,521,235,134,158,490,22.0,0.0,21.0,-31.0,22.0,0.0,21.0,31.0,219.13131313131314,131.63636363636363,116.31313131313131,466.3333333333333,15.868686868686865,2.363636363636374,41.68686868686869,23.666666666666686
518,508,247,134,155,420,12.0,0.0,-3.0,-70.0,12.0,0.0,3.0,70.0,219.3939393939394,131.8181818181818,117.4949494949495,466.1818181818182,27.606060606060595,2.181818181818187,37.505050505050505,-46.18181818181819
506,506,232,121,156,438,-15.0,-13.0,1.0,18.0,15.0,13.0,1.0,18.0,219.77777777777777,132.03030303030303,118.70707070707071,466.92929292929296,12.222222222222229,-11.030303030303031,37.29292929292929,-28.929292929292956
515,483,202,127,132,391,-30.0,6.0,-24.0,-47.0,30.0,6.0,24.0,47.0,220.25252525252526,132.33333333333334,119.70707070707071,467.8888888888889,-18.25252525252526,-5.333333333333343,12.292929292929287,-76.88888888888891
507,481,191,111,137,344,-11.0,-16.0,5.0,-47.0,11.0,16.0,5.0,47.0,220.64646464646464,132.5252525252525,120.74747474747475,468.5151515151515,-29.646464646464636,-21.52525252525251,16.252525252525245,-124.5151515151515
512,457,230,117,129,439,39.0,6.0,-8.0,95.0,39.0,6.0,8.0,95.0,221.67676767676767,132.6969696969697,121.51515151515152,470.44444444444446,8.323232323232332,-15.696969696969688,7.484848484848484,-31.444444444444457
510,450,234,134,120,432,4.0,17.0,-9.0,-7.0,4.0,17.0,9.0,7.0,222.77777777777777,132.78787878787878,121.84848484848484,471.82828282828285,11.222222222222229,1.2121212121212182,-1.8484848484848442,-39.82828282828285
508,442,235,148,113,461,1.0,14.0,-7.0,29.0,1.0,14.0,7.0,29.0,223.15151515151516,132.78787878787878,122.13131313131314,472.95959595959596,11.848484848484844,15.212121212121218,-9.131313131313135,-11.959595959595958
516,443,248,143,98,519,13.0,-5.0,-15.0,58.0,13.0,5.0,15.0,58.0,223.54545454545453,132.8181818181818,121.91919191919192,474.6161616161616,24.454545454545467,10.181818181818187,-23.919191919191917,44.383838383838395
501,425,267,169,102,621,19.0,26.0,4.0,102.0,19.0,26.0,4.0,102.0,224.24242424242425,132.68686868686868,121.52525252525253,476.8686868686869,42.75757575757575,36.31313131313132,-19.525252525252526,144.1313131313131
515,418,340,144,82,577,73.0,-25.0,-20.0,-44.0,73.0,25.0,20.0,44.0,225.5151515151515,132.44444444444446,120.55555555555556,476.4141414141414,114.4848484848485,11.555555555555543,-38.55555555555556,100.5858585858586
520,414,350,139,78,542,10.0,-5.0,-4.0,-35.0,10.0,5.0,4.0,35.0,226.67676767676767,132.16161616161617,119.25252525252525,476.74747474747477,123.32323232323233,6.838383838383834,-41.252525252525245,65.25252525252523
516,416,400,117,63,539,50.0,-22.0,-15.0,-3.0,50.0,22.0,15.0,3.0,228.42424242424244,131.59595959595958,117.87878787878788,476.5656565656566,171.57575757575756,-14.595959595959584,-54.878787878787875,62.43434343434342
510,406,401,129,65,589,1.0,12.0,2.0,50.0,1.0,12.0,2.0,50.0,230.22222222222223,130.84848484848484,116.5959595959596,475.83838383838383,170.77777777777777,-1.8484848484848442,-51.5959595959596,113.16161616161617
514,399,434,127,69,575,33.0,-2.0,4.0,-14.0,33.0,2.0,4.0,14.0,232.3939393939394,130.3030303030303,115.32323232323232,474.2121212121212,201.6060606060606,-3.3030303030303116,-46.32323232323232,100.78787878787881
520,404,380,117,70,652,-54.0,-10.0,1.0,77.0,54.0,10.0,1.0,77.0,233.8989898989899,129.41414141414143,114.29292929292929,473.65656565656565,146.1010101010101,-12.414141414141426,-44.29292929292929,178.34343434343435
523,414,453,111,67,500,73.0,-6.0,-3.0,-152.0,73.0,6.0,3.0,152.0,236.13131313131314,128.63636363636363,113.4040404040404,472.4949494949495,216.86868686868686,-17.636363636363626,-46.4040404040404,27.50505050505052
530,406,392,119,69,443,-61.0,8.0,2.0,-57.0,61.0,8.0,2.0,57.0,237.7171717171717,128.3030303030303,112.72727272727273,470.47474747474746,154.2828282828283,-9.303030303030312,-43.727272727272734,-27.47474747474746
530,403,354,111,77,391,-38.0,-8.0,8.0,-52.0,38.0,8.0,8.0,52.0,238.7979797979798,127.96969696969697,112.3030303030303,468.8787878787879,115.20202020202021,-16.96969696969697,-35.3030303030303,-77.87878787878788
531,403,307,115,70,422,-47.0,4.0,-7.0,31.0,47.0,4.0,7.0,31.0,238.93939393939394,127.79797979797979,111.9090909090909,466.64646464646466,68.06060606060606,-12.797979797979792,-41.90909090909091,-44.646464646464665
522,417,321,130,68,420,14.0,15.0,-2.0,-2.0,14.0,15.0,2.0,2.0,237.9090909090909,127.76767676767676,111.72727272727273,464.9191919191919,83.0909090909091,2.232323232323239,-43.727272727272734,-44.91919191919192
529,420,332,147,63,385,11.0,17.0,-5.0,-35.0,11.0,17.0,5.0,35.0,237.36363636363637,127.95959595959596,111.66666666666667,463.14141414141415,94.63636363636363,19.04040404040404,-48.66666666666667,-78.14141414141415
526,408,256,136,56,382,-76.0,-11.0,-7.0,-3.0,76.0,11.0,7.0,3.0,236.34343434343435,127.87878787878788,111.61616161616162,461.72727272727275,19.656565656565647,8.121212121212125,-55.61616161616162,-79.72727272727275
524,401,254,116,47,340,-2.0,-20.0,-9.0,-42.0,2.0,20.0,9.0,42.0,235.91919191919192,127.53535353535354,111.4949494949495,460.3333333333333,18.080808080808083,-11.535353535353536,-64.4949494949495,-120.33333333333331
523,425,218,111,42,344,-36.0,-5.0,-5.0,4.0,36.0,5.0,5.0,4.0,235.11111111111111,127.20202020202021,111.39393939393939,459.54545454545456,-17.111111111111114,-16.202020202020208,-69.39393939393939,-115.54545454545456
516,417,201,109,40,243,-17.0,-2.0,-2.0,-101.0,17.0,2.0,2.0,101.0,234.17171717171718,126.96969696969697,111.21212121212122,457.8888888888889,-33.17171717171718,-17.96969696969697,-71.21212121212122,-214.8888888888889
518,394,159,119,40,366,-42.0,10.0,0.0,123.0,42.0,10.0,0.0,123.0,233.23232323232324,126.82828282828282,111.04040404040404,457.73737373737373,-74.23232323232324,-7.828282828282823,-71.04040404040404,-91.73737373737373
511,440,132,123,40,440,-27.0,4.0,0.0,74.0,27.0,4.0,0.0,74.0,232.7070707070707,126.82828282828282,110.87878787878788,458.5858585858586,-100.7070707070707,-3.8282828282828234,-70.87878787878788,-18.585858585858603
505,452,120,105,50,384,-12.0,-18.0,10.0,-56.0,12.0,18.0,10.0,56.0,232.41414141414143,126.63636363636364,110.88888888888889,458.9191919191919,-112.41414141414143,-21.63636363636364,-60.888888888888886,-74.91919191919192
501,429,116,89,63,488,-4.0,-16.0,13.0,104.0,4.0,16.0,13.0,104.0,232.1818181818182,126.42424242424242,110.98989898989899,460.42424242424244,-116.18181818181819,-37.42424242424242,-47.98989898989899,27.575757575757564
515,439,133,90,85,485,17.0,1.0,22.0,-3.0,17.0,1.0,22.0,3.0,232.06060606060606,126.22222222222223,111.25252525252525,462.2828282828283,-99.06060606060606,-36.22222222222223,-26.252525252525245,22.71717171717171
521,455,107,83,104,430,-26.0,-7.0,19.0,-55.0,26.0,7.0,19.0,55.0,231.6969696969697,125.97979797979798,111.68686868686869,463.030303030303,-124.69696969696969,-42.97979797979798,-7.686868686868692,-33.030303030303
534,467,89,80,125,338,-18.0,-3.0,21.0,-92.0,18.0,3.0,21.0,92.0,230.82828282828282,125.60606060606061,112.18181818181819,462.52525252525254,-141.82828282828282,-45.60606060606061,12.818181818181813,-124.52525252525254
525,474,126,90,140,426,37.0,10.0,15.0,88.0,37.0,10.0,15.0,88.0,230.4747474747475,125.31313131313131,112.75757575757575,461.16161616161617,-104.47474747474749,-35.31313131313131,27.24242424242425,-35.161616161616166
532,506,127,90,149,480,1.0,0.0,9.0,54.0,1.0,0.0,9.0,54.0,229.8989898989899,124.67676767676768,113.03030303030303,459.74747474747477,-102.8989898989899,-34.67676767676768,35.96969696969697,20.25252525252523
540,515,108,131,186,472,-19.0,41.0,37.0,-8.0,19.0,41.0,37.0,8.0,228.78787878787878,124.37373737373737,113.74747474747475,457.2323232323232,-120.78787878787878,6.62626262626263,72.25252525252525,14.76767676767679
539,524,117,129,179,422,9.0,-2.0,-7.0,-50.0,9.0,2.0,7.0,50.0,228.02020202020202,124.15151515151516,113.97979797979798,455.06060606060606,-111.02020202020202,4.848484848484844,65.02020202020202,-33.06060606060606
543,518,128,128,181,407,11.0,-1.0,2.0,-15.0,11.0,1.0,2.0,15.0,227.41414141414143,123.96969696969697,114.15151515151516,453.17171717171715,-99.41414141414143,4.030303030303031,66.84848484848484,-46.17171717171715
543,507,141,123,182,371,13.0,-5.0,1.0,-36.0,13.0,5.0,1.0,36.0,226.989898989899,123.79797979797979,114.01010101010101,450.6666666666667,-85.98989898989899,-0.7979797979797922,67.98989898989899,-79.66666666666669
529,500,153,140,174,457,12.0,17.0,-8.0,86.0,12.0,17.0,8.0,86.0,226.83838383838383,123.58585858585859,114.02020202020202,448.4848484848485,-73.83838383838383,16.41414141414141,59.97979797979798,8.515151515151501
532,475,201,130,189,549,48.0,-10.0,15.0,92.0,48.0,10.0,15.0,92.0,227.40404040404042,123.4040404040404,114.32323232323232,448.47474747474746,-26.404040404040416,6.595959595959599,74.67676767676768,100.52525252525254
532,465,155,118,172,574,-46.0,-12.0,-17.0,25.0,46.0,12.0,17.0,25.0,227.07070707070707,123.11111111111111,114.5959595959596,448.95959595959596,-72.07070707070707,-5.111111111111114,57.4040404040404,125.04040404040404
510,445,203,109,160,547,48.0,-9.0,-12.0,-27.0,48.0,9.0,12.0,27.0,226.4747474747475,122.6969696969697,114.93939393939394,449.7676767676768,-23.47474747474749,-13.696969696969703,45.06060606060606,97.23232323232321
514,438,277,132,144,526,74.0,23.0,-16.0,-21.0,74.0,23.0,16.0,21.0,226.17171717171718,122.62626262626263,115.24242424242425,450.64646464646466,50.82828282828282,9.37373737373737,28.75757575757575,75.35353535353534
513,429,229,128,134,559,-48.0,-4.0,-10.0,33.0,48.0,4.0,10.0,33.0,224.64646464646464,122.54545454545455,115.70707070707071,450.44444444444446,4.353535353535364,5.454545454545453,18.292929292929287,108.55555555555554
522,421,258,126,113,597,29.0,-2.0,-21.0,38.0,29.0,2.0,21.0,38.0,223.5252525252525,122.38383838383838,116.14141414141415,450.34343434343435,34.47474747474749,3.6161616161616195,-3.1414141414141454,146.65656565656565
525,413,276,105,89,531,18.0,-21.0,-24.0,-66.0,18.0,21.0,24.0,66.0,222.45454545454547,122.07070707070707,116.34343434343434,449.26262626262627,53.54545454545453,-17.070707070707073,-27.34343434343434,81.73737373737373
526,401,298,95,68,653,22.0,-10.0,-21.0,122.0,22.0,10.0,21.0,122.0,221.57575757575756,121.68686868686869,116.36363636363636,449.4141414141414,76.42424242424244,-26.686868686868692,-48.36363636363636,203.5858585858586
523,398,342,114,60,618,44.0,19.0,-8.0,-35.0,44.0,19.0,8.0,35.0,221.76767676767676,121.54545454545455,116.34343434343434,450.37373737373736,120.23232323232324,-7.545454545454547,-56.34343434343434,167.62626262626264
528,400,277,100,54,610,-65.0,-14.0,-6.0,-8.0,65.0,14.0,6.0,8.0,221.2929292929293,121.4040404040404,116.31313131313131,452.010101010101,55.7070707070707,-21.4040404040404,-62.31313131313131,157.98989898989902
531,407,293,104,56,594,16.0,4.0,2.0,-16.0,16.0,4.0,2.0,16.0,220.59595959595958,121.32323232323232,116.32323232323232,454.030303030303,72.40404040404042,-17.323232323232318,-60.32323232323232,139.969696969697
529,405,263,99,61,488,-30.0,-5.0,5.0,-106.0,30.0,5.0,5.0,106.0,219.95959595959596,121.1919191919192,116.4040404040404,454.5858585858586,43.04040404040404,-22.191919191919197,-55.4040404040404,33.4141414141414
526,415,245,91,63,558,-18.0,-8.0,2.0,70.0,18.0,8.0,2.0,70.0,219.83838383838383,121.13131313131314,116.42424242424242,456.5959595959596,25.161616161616166,-30.131313131313135,-53.42424242424242,101.40404040404042
525,416,211,83,64,473,-34.0,-8.0,1.0,-85.0,34.0,8.0,1.0,85.0,219.8989898989899,121.02020202020202,116.46464646464646,457.989898989899,-8.898989898989896,-38.02020202020202,-52.464646464646464,15.010101010100982
528,426,175,69,71,365,-36.0,-14.0,7.0,-108.0,36.0,14.0,7.0,108.0,220.0,120.79797979797979,116.68686868686869,458.949494949495,-45.0,-51.79797979797979,-45.68686868686869,-93.94949494949498
521,428,141,64,69,313,-34.0,-5.0,-2.0,-52.0,34.0,5.0,2.0,52.0,219.2828282828283,120.4040404040404,116.67676767676768,459.16161616161617,-78.28282828282829,-56.4040404040404,-47.67676767676768,-146.16161616161617
524,416,125,68,62,253,-16.0,4.0,-7.0,-60.0,16.0,4.0,7.0,60.0,218.83838383838383,120.05050505050505,116.63636363636364,459.44444444444446,-93.83838383838383,-52.05050505050505,-54.63636363636364,-206.44444444444446
529,446,115,63,57,251,-10.0,-5.0,-5.0,-2.0,10.0,5.0,5.0,2.0,218.56565656565655,119.72727272727273,116.56565656565657,460.17171717171715,-103.56565656565655,-56.727272727272734,-59.56565656565657,-209.17171717171715
536,454,101,67,56,219,-14.0,4.0,-1.0,-32.0,14.0,4.0,1.0,32.0,218.1010101010101,119.39393939393939,116.5959595959596,460.27272727272725,-117.1010101010101,-52.39393939393939,-60.5959595959596,-241.27272727272725
554,418,89,83,50,317,-12.0,16.0,-6.0,98.0,12.0,16.0,6.0,98.0,217.6060606060606,119.29292929292929,116.5959595959596,461.67676767676767,-128.6060606060606,-36.29292929292929,-66.5959595959596,-144.67676767676767
485,540,83,77,48,446,-6.0,-6.0,-2.0,129.0,6.0,6.0,2.0,129.0,217.14141414141415,119.20202020202021,116.44444444444444,463.1010101010101,-134.14141414141415,-42.20202020202021,-68.44444444444444,-17.101010101010104
540,498,67,84,65,515,-16.0,7.0,17.0,69.0,16.0,7.0,17.0,69.0,215.8181818181818,118.91919191919192,116.25252525252525,465.2323232323232,-148.8181818181818,-34.91919191919192,-51.252525252525245,49.76767676767679
547,472,77,99,82,521,10.0,15.0,17.0,6.0,10.0,15.0,17.0,6.0,214.8989898989899,118.81818181818181,115.85858585858585,467.2121212121212,-137.8989898989899,-19.818181818181813,-33.858585858585855,53.78787878787881
494,526,93,92,76,570,16.0,-7.0,-6.0,49.0,16.0,7.0,6.0,49.0,213.83838383838383,118.74747474747475,114.9090909090909,469.7676767676768,-120.83838383838383,-26.747474747474755,-38.90909090909091,100.23232323232321
531,526,104,94,93,582,11.0,2.0,17.0,12.0,11.0,2.0,17.0,12.0,213.36363636363637,118.52525252525253,114.05050505050505,472.07070707070704,-109.36363636363637,-24.525252525252526,-21.050505050505052,109.92929292929296
519,545,88,96,109,528,-16.0,2.0,16.0,-54.0,16.0,2.0,16.0,54.0,212.7171717171717,118.08080808080808,113.27272727272727,473.3636363636364,-124.71717171717171,-22.080808080808083,-4.272727272727266,54.636363636363626
506,547,71,106,103,573,-17.0,10.0,-6.0,45.0,17.0,10.0,6.0,45.0,211.73737373737373,117.84848484848484,112.27272727272727,474.6060606060606,-140.73737373737373,-11.848484848484844,-9.272727272727266,98.39393939393938
538,533,94,104,106,727,23.0,-2.0,3.0,154.0,23.0,2.0,3.0,154.0,211.1919191919192,117.55555555555556,111.4040404040404,475.73737373737373,-117.1919191919192,-13.555555555555557,-5.404040404040401,251.26262626262627
519,519,102,99,88,639,8.0,-5.0,-18.0,-88.0,8.0,5.0,18.0,88.0,210.42424242424244,117.31313131313131,110.33333333333333,475.2828282828283,-108.42424242424244,-18.313131313131308,-22.33333333333333,163.7171717171717
515,511,143,90,89,563,41.0,-9.0,1.0,-76.0,41.0,9.0,1.0,76.0,209.56565656565655,117.02020202020202,109.51515151515152,474.0808080808081,-66.56565656565655,-27.02020202020202,-20.515151515151516,88.91919191919192
531,493,163,89,85,566,20.0,-1.0,-4.0,3.0,20.0,1.0,4.0,3.0,208.26262626262627,116.56565656565657,108.72727272727273,474.55555555555554,-45.26262626262627,-27.565656565656568,-23.727272727272734,91.44444444444446
512,477,165,83,79,552,2.0,-6.0,-6.0,-14.0,2.0,6.0,6.0,14.0,206.2929292929293,115.72727272727273,108.07070707070707,474.72727272727275,-41.2929292929293,-32.727272727272734,-29.070707070707073,77.27272727272725
504,451,164,97,87,457,-1.0,14.0,8.0,-95.0,1.0,14.0,8.0,95.0,204.67676767676767,114.64646464646465,107.64646464646465,473.2121212121212,-40.67676767676767,-17.64646464646465,-20.64646464646465,-16.21212121212119
506,440,134,105,95,501,-30.0,8.0,8.0,44.0,30.0,8.0,8.0,44.0,203.40404040404042,113.98989898989899,107.56565656565657,472.44444444444446,-69.40404040404042,-8.98989898989899,-12.565656565656568,28.555555555555543
518,437,210,93,78,664,76.0,-12.0,-17.0,163.0,76.0,12.0,17.0,163.0,203.42424242424244,113.39393939393939,107.4949494949495,473.969696969697,6.575757575757564,-20.39393939393939,-29.494949494949495,190.030303030303
526,430,221,90,73,748,11.0,-3.0,-5.0,84.0,11.0,3.0,5.0,84.0,202.36363636363637,112.92929292929293,107.4949494949495,476.27272727272725,18.636363636363626,-22.929292929292927,-34.494949494949495,271.72727272727275
524,419,206,73,64,633,-15.0,-17.0,-9.0,-115.0,15.0,17.0,9.0,115.0,201.7979797979798,112.45454545454545,107.56565656565657,477.7070707070707,4.202020202020208,-39.45454545454545,-43.56565656565657,155.29292929292927
535,394,231,70,53,555,25.0,-3.0,-11.0,-78.0,25.0,3.0,11.0,78.0,202.0909090909091,111.68686868686869,107.46464646464646,478.74747474747477,28.909090909090907,-41.68686868686869,-54.464646464646464,76.25252525252523
540,398,282,71,61,723,51.0,1.0,8.0,168.0,51.0,1.0,8.0,168.0,202.8080808080808,110.95959595959596,107.28282828282828,481.72727272727275,79.1919191919192,-39.95959595959596,-46.28282828282828,241.27272727272725
532,400,265,78,78,692,-17.0,7.0,17.0,-31.0,17.0,7.0,17.0,31.0,203.35353535353536,110.53535353535354,107.12121212121212,484.45454545454544,61.646464646464636,-32.535353535353536,-29.121212121212125,207.54545454545456
534,402,246,85,92,666,-19.0,7.0,14.0,-26.0,19.0,7.0,14.0,26.0,203.6969696969697,110.14141414141415,106.95959595959596,485.010101010101,42.30303030303031,-25.141414141414145,-14.959595959595958,180.98989898989902
535,411,190,100,102,600,-56.0,15.0,10.0,-66.0,56.0,15.0,10.0,66.0,203.5252525252525,110.01010101010101,106.4949494949495,484.1212121212121,-13.525252525252512,-10.01010101010101,-4.494949494949495,115.87878787878788
531,406,192,84,115,569,2.0,-16.0,13.0,-31.0,2.0,16.0,13.0,31.0,203.36363636363637,109.75757575757575,105.88888888888889,481.7070707070707,-11.363636363636374,-25.75757575757575,9.111111111111114,87.29292929292927
531,404,191,75,119,542,-1.0,-9.0,4.0,-27.0,1.0,9.0,4.0,27.0,203.25252525252526,109.37373737373737,105.06060606060606,479.55555555555554,-12.25252525252526,-34.37373737373737,13.939393939393938,62.44444444444446
528,412,179,73,121,677,-12.0,-2.0,2.0,135.0,12.0,2.0,2.0,135.0,203.010101010101,108.98989898989899,104.02020202020202,479.7878787878788,-24.01010101010101,-35.98989898989899,16.97979797979798,197.2121212121212
523,418,158,79,124,562,-21.0,6.0,3.0,-115.0,21.0,6.0,3.0,115.0,202.1818181818182,108.47474747474747,102.78787878787878,479.4040404040404,-44.18181818181819,-29.474747474747474,21.212121212121218,82.59595959595958
513,411,169,76,116,457,11.0,-3.0,-8.0,-105.0,11.0,3.0,8.0,105.0,201.74747474747474,107.68686868686869,101.51515151515152,479.1111111111111,-32.74747474747474,-31.686868686868692,14.484848484848484,-22.111111111111086
512,416,151,63,109,442,-18.0,-13.0,-7.0,-15.0,18.0,13.0,7.0,15.0,200.97979797979798,106.83838383838383,99.94949494949495,480.0808080808081,-49.97979797979798,-43.838383838383834,9.050505050505052,-38.08080808080808
516,419,120,77,114,452,-31.0,14.0,5.0,10.0,31.0,14.0,5.0,10.0,200.23232323232324,106.13131313131314,98.76767676767676,481.06060606060606,-80.23232323232324,-29.131313131313135,15.232323232323239,-29.060606060606062
517,430,102,80,106,400,-18.0,3.0,-8.0,-52.0,18.0,3.0,8.0,52.0,199.59595959595958,105.48484848484848,97.6969696969697,482.3333333333333,-97.59595959595958,-25.484848484848484,8.303030303030297,-82.33333333333331
505,452,92,84,94,393,-10.0,4.0,-12.0,-7.0,10.0,4.0,12.0,7.0,198.93939393939394,105.04040404040404,97.0,484.050505050505,-106.93939393939394,-21.04040404040404,-3.0,-91.05050505050502
531,450,84,91,76,330,-8.0,7.0,-18.0,-63.0,8.0,7.0,18.0,63.0,198.58585858585857,104.66666666666667,96.29292929292929,484.19191919191917,-114.58585858585857,-13.666666666666671,-20.292929292929287,-154.19191919191917
516,453,110,91,62,358,26.0,0.0,-14.0,28.0,26.0,0.0,14.0,28.0,198.4747474747475,104.38383838383838,95.68686868686869,484.989898989899,-88.47474747474749,-13.38383838383838,-33.68686868686869,-126.98989898989902
533,463,121,112,60,336,11.0,21.0,-2.0,-22.0,11.0,21.0,2.0,22.0,198.1919191919192,104.45454545454545,95.16161616161617,485.3636363636364,-77.1919191919192,7.545454545454547,-35.161616161616166,-149.36363636363637
536,480,142,127,69,353,21.0,15.0,9.0,17.0,21.0,15.0,9.0,17.0,198.27272727272728,104.5959595959596,94.91919191919192,485.8484848484849,-56.27272727272728,22.4040404040404,-25.919191919191917,-132.84848484848487
542,481,130,132,84,361,-12.0,5.0,15.0,8.0,12.0,5.0,15.0,8.0,198.40404040404042,104.77777777777777,94.83838383838383,485.65656565656565,-68.40404040404042,27.22222222222223,-10.838383838383834,-124.65656565656565
530,500,157,156,75,348,27.0,24.0,-9.0,-13.0,27.0,24.0,9.0,13.0,198.1818181818182,105.12121212121212,94.42424242424242,485.6363636363636,-41.18181818181819,50.878787878787875,-19.424242424242422,-137.63636363636363
540,511,169,141,98,466,12.0,-15.0,23.0,118.0,12.0,15.0,23.0,118.0,198.21212121212122,105.39393939393939,93.94949494949495,485.3333333333333,-29.212121212121218,35.60606060606061,4.050505050505052,-19.333333333333314
538,520,155,110,104,497,-14.0,-31.0,6.0,31.0,14.0,31.0,6.0,31.0,197.62626262626262,105.15151515151516,93.61616161616162,485.09090909090907,-42.626262626262616,4.848484848484844,10.38383838383838,11.909090909090935
526,524,159,94,100,576,4.0,-16.0,-4.0,79.0,4.0,16.0,4.0,79.0,196.85858585858585,104.74747474747475,93.03030303030303,485.95959595959596,-37.858585858585855,-10.747474747474755,6.969696969696969,90.04040404040404
531,510,152,98,113,510,-7.0,4.0,13.0,-66.0,7.0,4.0,13.0,66.0,195.8989898989899,104.38383838383838,92.60606060606061,486.8686868686869,-43.898989898989896,-6.3838383838383805,20.39393939393939,23.131313131313107
523,496,137,102,108,557,-15.0,4.0,-5.0,47.0,15.0,4.0,5.0,47.0,194.93939393939394,104.1919191919192,92.12121212121212,488.07070707070704,-57.93939393939394,-2.1919191919191974,15.878787878787875,68.92929292929296
520,492,183,97,117,590,46.0,-5.0,9.0,33.0,46.0,5.0,9.0,33.0,194.74747474747474,103.88888888888889,91.96969696969697,490.0808080808081,-11.74747474747474,-6.888888888888886,25.03030303030303,99.91919191919192
505,473,149,105,118,586,-34.0,8.0,1.0,-4.0,34.0,8.0,1.0,4.0,194.32323232323233,103.82828282828282,91.77777777777777,492.52525252525254,-45.32323232323233,1.1717171717171766,26.22222222222223,93.47474747474746
512,446,145,115,119,474,-4.0,10.0,1.0,-112.0,4.0,10.0,1.0,112.0,193.46464646464648,103.8080808080808,91.67676767676768,492.8787878787879,-48.46464646464648,11.191919191919197,27.323232323232318,-18.878787878787875
508,432,154,116,100,498,9.0,1.0,-19.0,24.0,9.0,1.0,19.0,24.0,192.65656565656565,103.62626262626263,91.47474747474747,493.54545454545456,-38.65656565656565,12.37373737373737,8.525252525252526,4.454545454545439
509,433,199,97,98,496,45.0,-19.0,-2.0,-2.0,45.0,19.0,2.0,2.0,192.2929292929293,103.11111111111111,91.32323232323232,493.8989898989899,6.707070707070699,-6.111111111111114,6.676767676767682,2.101010101010104
514,421,194,86,91,566,-5.0,-11.0,-7.0,70.0,5.0,11.0,7.0,70.0,191.74747474747474,102.53535353535354,91.25252525252525,494.37373737373736,2.2525252525252597,-16.535353535353536,-0.2525252525252455,71.62626262626264
512,410,252,80,81,468,58.0,-6.0,-10.0,-98.0,58.0,6.0,10.0,98.0,191.59595959595958,101.63636363636364,91.04040404040404,492.82828282828285,60.404040404040416,-21.63636363636364,-10.040404040404042,-24.828282828282852
511,407,229,95,78,490,-23.0,15.0,-3.0,22.0,23.0,15.0,3.0,22.0,190.4747474747475,101.14141414141415,91.0,491.949494949495,38.52525252525251,-6.141414141414145,-13.0,-1.9494949494949765
513,402,181,84,60,530,-48.0,-11.0,-18.0,40.0,48.0,11.0,18.0,40.0,188.76767676767676,100.58585858585859,90.81818181818181,491.82828282828285,-7.767676767676761,-16.58585858585859,-30.818181818181813,38.17171717171715
522,401,224,78,56,777,43.0,-6.0,-4.0,247.0,43.0,6.0,4.0,247.0,186.989898989899,100.1919191919192,90.74747474747475,494.2323232323232,37.01010101010101,-22.191919191919197,-34.747474747474755,282.7676767676768
529,403,205,90,58,873,-19.0,12.0,2.0,96.0,19.0,12.0,2.0,96.0,185.010101010101,99.79797979797979,90.67676767676768,497.1010101010101,19.98989898989899,-9.797979797979792,-32.67676767676768,375.8989898989899
530,392,169,87,74,854,-36.0,-3.0,16.0,-19.0,36.0,3.0,16.0,19.0,182.33333333333334,99.39393939393939,90.72727272727273,499.9191919191919,-13.333333333333343,-12.393939393939391,-16.727272727272734,354.0808080808081
531,381,248,87,73,798,79.0,0.0,-1.0,-56.0,79.0,0.0,1.0,56.0,181.0,99.0909090909091,90.75757575757575,501.3939393939394,67.0,-12.090909090909093,-17.75757575757575,296.6060606060606
535,389,268,84,92,653,20.0,-3.0,19.0,-145.0,20.0,3.0,19.0,145.0,179.13131313131314,98.81818181818181,91.01010101010101,502.93939393939394,88.86868686868686,-14.818181818181813,0.9898989898989896,150.06060606060606
539,405,297,90,95,512,29.0,6.0,3.0,-141.0,29.0,6.0,3.0,141.0,178.17171717171718,98.52525252525253,91.27272727272727,503.6363636363636,118.82828282828282,-8.525252525252526,3.7272727272727337,8.363636363636374
536,406,274,89,96,487,-23.0,-1.0,1.0,-25.0,23.0,1.0,1.0,25.0,177.36363636363637,98.3030303030303,91.46464646464646,504.6060606060606,96.63636363636363,-9.303030303030297,4.535353535353536,-17.606060606060623
527,435,224,88,103,574,-50.0,-1.0,7.0,87.0,50.0,1.0,7.0,87.0,176.5252525252525,98.03030303030303,91.79797979797979,506.14141414141415,47.47474747474749,-10.030303030303031,11.202020202020208,67.85858585858585
513,434,188,76,113,512,-36.0,-12.0,10.0,-62.0,36.0,12.0,10.0,62.0,175.1818181818182,97.48484848484848,92.25252525252525,507.07070707070704,12.818181818181813,-21.484848484848484,20.747474747474755,4.929292929292956
504,413,153,74,103,396,-35.0,-2.0,-10.0,-116.0,35.0,2.0,10.0,116.0,173.37373737373738,96.74747474747475,92.65656565656566,507.1818181818182,-20.373737373737384,-22.747474747474755,10.343434343434339,-111.18181818181819
502,403,150,80,91,476,-3.0,6.0,-12.0,80.0,3.0,6.0,12.0,80.0,172.3030303030303,96.18181818181819,93.01010101010101,508.1313131313131,-22.30303030303031,-16.181818181818187,-2.0101010101010104,-32.13131313131311
510,432,143,90,73,520,-7.0,10.0,-18.0,44.0,7.0,10.0,18.0,44.0,171.1818181818182,95.91919191919192,93.27272727272727,509.949494949495,-28.181818181818187,-5.919191919191917,-20.272727272727266,10.050505050505024
514,430,151,80,73,500,8.0,-10.0,0.0,-20.0,8.0,10.0,0.0,20.0,170.5050505050505,95.60606060606061,93.58585858585859,511.52525252525254,-19.50505050505049,-15.606060606060609,-20.58585858585859,-11.52525252525254
536,433,163,77,74,427,12.0,-3.0,1.0,-73.0,12.0,3.0,1.0,73.0,170.12121212121212,95.28282828282828,93.92929292929293,513.3838383838383,-7.121212121212125,-18.282828282828277,-19.929292929292927,-86.38383838383834
545,450,166,69,82,420,3.0,-8.0,8.0,-7.0,3.0,8.0,8.0,7.0,170.1919191919192,94.77777777777777,94.35353535353535,513.929292929293,-4.191919191919197,-25.77777777777777,-12.35353535353535,-93.92929292929296
560,470,125,81,105,548,-41.0,12.0,23.0,128.0,41.0,12.0,23.0,128.0,170.12121212121212,94.35353535353535,95.01010101010101,515.020202020202,-45.121212121212125,-13.35353535353535,9.98989898989899,32.979797979798036
519,499,153,105,137,585,28.0,24.0,32.0,37.0,28.0,24.0,32.0,37.0,170.45454545454547,94.35353535353535,95.88888888888889,517.0505050505051,-17.454545454545467,10.64646464646465,41.111111111111114,67.94949494949492
527,499,142,97,172,580,-11.0,-8.0,35.0,-5.0,11.0,8.0,35.0,5.0,170.7171717171717,94.43434343434343,96.98989898989899,517.979797979798,-28.71717171717171,2.5656565656565675,75.01010101010101,62.020202020201964
527,498,167,100,216,582,25.0,3.0,44.0,2.0,25.0,3.0,44.0,2.0,171.06060606060606,94.53535353535354,98.31313131313131,518.959595959596,-4.060606060606062,5.464646464646464,117.68686868686869,63.04040404040404
531,500,151,100,200,584,-16.0,0.0,-16.0,2.0,16.0,0.0,16.0,2.0,171.5050505050505,94.70707070707071,99.28282828282828,520.5151515151515,-20.50505050505049,5.292929292929287,100.71717171717172,63.4848484848485
526,507,154,115,224,520,3.0,15.0,24.0,-64.0,3.0,15.0,24.0,64.0,172.16161616161617,95.06060606060606,100.28282828282828,522.3535353535353,-18.161616161616166,19.939393939393938,123.71717171717172,-2.353535353535335
537,493,157,129,225,452,3.0,14.0,1.0,-68.0,3.0,14.0,1.0,68.0,172.4747474747475,95.45454545454545,101.14141414141415,522.6161616161617,-15.474747474747488,33.54545454545455,123.85858585858585,-70.61616161616166
511,492,158,149,211,448,1.0,20.0,-14.0,-4.0,1.0,20.0,14.0,4.0,172.78787878787878,96.05050505050505,101.76767676767676,522.2929292929293,-14.787878787878782,52.94949494949495,109.23232323232324,-74.29292929292933
502,471,190,132,191,382,32.0,-17.0,-20.0,-66.0,32.0,17.0,20.0,66.0,173.6161616161616,96.06060606060606,101.81818181818181,521.3838383838383,16.383838383838395,35.93939393939394,89.18181818181819,-139.38383838383834
499,465,158,134,175,446,-32.0,2.0,-16.0,64.0,32.0,2.0,16.0,64.0,174.03030303030303,96.11111111111111,101.77777777777777,521.6262626262626,-16.03030303030303,37.888888888888886,73.22222222222223,-75.62626262626259
511,462,204,125,147,536,46.0,-9.0,-28.0,90.0,46.0,9.0,28.0,90.0,174.7979797979798,96.08080808080808,101.43434343434343,522.929292929293,29.202020202020208,28.919191919191917,45.56565656565657,13.070707070707044
509,440,276,115,132,466,72.0,-10.0,-15.0,-70.0,72.0,10.0,15.0,70.0,176.16161616161617,96.0,100.92929292929293,523.8888888888889,99.83838383838383,19.0,31.070707070707073,-57.888888888888914
521,421,219,124,112,491,-57.0,9.0,-20.0,25.0,57.0,9.0,20.0,25.0,176.82828282828282,95.83838383838383,100.3030303030303,524.2323232323232,42.17171717171718,28.161616161616166,11.696969696969703,-33.23232323232321
519,415,280,112,86,422,61.0,-12.0,-26.0,-69.0,61.0,12.0,26.0,69.0,177.62626262626262,95.65656565656566,99.26262626262626,522.9494949494949,102.37373737373738,16.34343434343434,-13.262626262626256,-100.94949494949492
527,416,324,97,70,376,44.0,-15.0,-16.0,-46.0,44.0,15.0,16.0,46.0,179.33333333333334,95.44444444444444,98.23232323232324,520.9494949494949,144.66666666666666,1.5555555555555571,-28.23232323232324,-144.94949494949492
522,415,304,123,69,424,-20.0,26.0,-1.0,48.0,20.0,26.0,1.0,48.0,180.35353535353536,95.58585858585859,97.31313131313131,519.7070707070707,123.64646464646464,27.41414141414141,-28.313131313131308,-95.70707070707067
528,394,294,107,79,394,-10.0,-16.0,10.0,-30.0,10.0,16.0,10.0,30.0,180.5252525252525,95.33333333333333,96.65656565656566,518.3737373737374,113.47474747474749,11.666666666666671,-17.65656565656566,-124.37373737373741
536,388,256,87,104,519,-38.0,-20.0,25.0,125.0,38.0,20.0,25.0,125.0,180.7979797979798,94.91919191919192,96.35353535353535,517.969696969697,75.20202020202021,-7.919191919191917,7.646464646464651,1.0303030303030027
531,393,290,79,131,519,34.0,-8.0,27.0,0.0,34.0,8.0,27.0,0.0,181.12121212121212,94.44444444444444,96.53535353535354,517.1818181818181,108.87878787878788,-15.444444444444443,34.464646464646464,1.8181818181818699
540,403,414,88,165,537,124.0,9.0,34.0,18.0,124.0,9.0,34.0,18.0,182.5151515151515,94.27272727272727,97.3030303030303,517.2424242424242,231.4848484848485,-6.272727272727266,67.6969696969697,19.75757575757575
542,402,313,83,177,569,-101.0,-5.0,12.0,32.0,101.0,5.0,12.0,32.0,182.66666666666666,94.15151515151516,98.4040404040404,516.3939393939394,130.33333333333334,-11.151515151515156,78.5959595959596,52.60606060606062
544,387,337,90,200,503,24.0,7.0,23.0,-66.0,24.0,7.0,23.0,66.0,182.6161616161616,93.9090909090909,99.81818181818181,515.2323232323232,154.3838383838384,-3.9090909090909065,100.18181818181819,-12.23232323232321
545,395,297,92,203,509,-40.0,2.0,3.0,6.0,40.0,2.0,3.0,6.0,182.8181818181818,93.82828282828282,101.32323232323232,514.2121212121212,114.18181818181819,-1.8282828282828234,101.67676767676768,-5.212121212121247
539,418,241,77,212,459,-56.0,-15.0,9.0,-50.0,56.0,15.0,9.0,50.0,182.2929292929293,93.55555555555556,102.8989898989899,512.8484848484849,58.7070707070707,-16.555555555555557,109.1010101010101,-53.84848484848487
529,411,221,77,205,393,-20.0,0.0,-7.0,-66.0,20.0,0.0,7.0,66.0,181.86868686868686,93.33333333333333,104.35353535353535,511.8888888888889,39.131313131313135,-16.33333333333333,100.64646464646465,-118.88888888888891
528,393,203,92,197,346,-18.0,15.0,-8.0,-47.0,18.0,15.0,8.0,47.0,181.44444444444446,93.34343434343434,105.70707070707071,509.74747474747477,21.555555555555543,-1.343434343434339,91.29292929292929,-163.74747474747477
519,417,165,95,187,368,-38.0,3.0,-10.0,22.0,38.0,3.0,10.0,22.0,180.97979797979798,93.46464646464646,106.94949494949495,508.6868686868687,-15.97979797979798,1.5353535353535364,80.05050505050505,-140.6868686868687
528,440,129,85,188,357,-36.0,-10.0,1.0,-11.0,36.0,10.0,1.0,11.0,180.5151515151515,93.62626262626263,108.13131313131314,508.6060606060606,-51.5151515151515,-8.62626262626263,79.86868686868686,-151.60606060606062
513,426,111,82,167,285,-18.0,-3.0,-21.0,-72.0,18.0,3.0,21.0,72.0,180.21212121212122,93.8080808080808,109.12121212121212,508.32323232323233,-69.21212121212122,-11.808080808080803,57.878787878787875,-223.32323232323233
515,407,102,84,154,274,-9.0,2.0,-13.0,-11.0,9.0,2.0,13.0,11.0,179.97979797979798,93.96969696969697,110.05050505050505,508.5353535353535,-77.97979797979798,-9.969696969696969,43.94949494949495,-234.53535353535352
500,461,117,82,120,311,15.0,-2.0,-34.0,37.0,15.0,2.0,34.0,37.0,180.0,94.16161616161617,110.68686868686869,509.14141414141415,-63.0,-12.161616161616166,9.313131313131308,-198.14141414141415
528,476,136,101,91,301,19.0,19.0,-29.0,-10.0,19.0,19.0,29.0,10.0,180.35353535353536,94.5050505050505,111.04040404040404,509.969696969697,-44.353535353535364,6.494949494949495,-20.04040404040404,-208.969696969697
536,456,145,93,72,293,9.0,-8.0,-19.0,-8.0,9.0,8.0,19.0,8.0,180.91919191919192,94.60606060606061,111.26262626262626,509.72727272727275,-35.91919191919192,-1.606060606060609,-39.262626262626256,-216.72727272727275
532,451,139,93,65,377,-6.0,0.0,-7.0,84.0,6.0,0.0,7.0,84.0,181.4848484848485,94.76767676767676,111.43434343434343,509.030303030303,-42.4848484848485,-1.767676767676761,-46.43434343434343,-132.030303030303
505,483,131,89,68,348,-8.0,-4.0,3.0,-29.0,8.0,4.0,3.0,29.0,182.13131313131314,94.81818181818181,111.46464646464646,507.34343434343435,-51.131313131313135,-5.818181818181813,-43.464646464646464,-159.34343434343435
515,481,145,109,70,419,14.0,20.0,2.0,71.0,14.0,20.0,2.0,71.0,182.8181818181818,94.91919191919192,111.34343434343434,506.3131313131313,-37.81818181818181,14.080808080808083,-41.34343434343434,-87.3131313131313
535,485,136,98,90,367,-9.0,-11.0,20.0,-52.0,9.0,11.0,20.0,52.0,183.25252525252526,94.97979797979798,111.48484848484848,504.26262626262627,-47.25252525252526,3.0202020202020208,-21.484848484848484,-137.26262626262627
524,510,135,95,86,429,-1.0,-3.0,-4.0,62.0,1.0,3.0,4.0,62.0,183.56565656565655,94.98989898989899,111.41414141414141,502.7171717171717,-48.56565656565655,0.010101010101010388,-25.41414141414141,-73.71717171717171
532,510,112,104,105,466,-23.0,9.0,19.0,37.0,23.0,9.0,19.0,37.0,183.8080808080808,95.07070707070707,111.37373737373737,502.09090909090907,-71.8080808080808,8.929292929292927,-6.37373737373737,-36.090909090909065
537,516,150,114,95,593,38.0,10.0,-10.0,127.0,38.0,10.0,10.0,127.0,184.6060606060606,95.15151515151516,111.29292929292929,502.2929292929293,-34.606060606060595,18.848484848484844,-16.292929292929287,90.70707070707073
529,502,188,107,111,593,38.0,-7.0,16.0,0.0,38.0,7.0,16.0,0.0,185.55555555555554,95.18181818181819,111.34343434343434,500.93939393939394,2.444444444444457,11.818181818181813,-0.343434343434339,92.06060606060606
534,481,190,105,99,562,2.0,-2.0,-12.0,-31.0,2.0,2.0,12.0,31.0,186.44444444444446,95.24242424242425,111.45454545454545,500.16161616161617,3.555555555555543,9.75757575757575,-12.454545454545453,61.838383838383834
524,463,170,97,94,474,-20.0,-8.0,-5.0,-88.0,20.0,8.0,5.0,88.0,186.7171717171717,95.31313131313131,111.5050505050505,499.26262626262627,-16.71717171717171,1.6868686868686922,-17.505050505050505,-25.26262626262627
526,452,136,119,90,512,-34.0,22.0,-4.0,38.0,34.0,22.0,4.0,38.0,186.44444444444446,95.61616161616162,111.55555555555556,498.7171717171717,-50.44444444444446,23.38383838383838,-21.555555555555557,13.28282828282829
517,433,170,127,85,448,34.0,8.0,-5.0,-64.0,34.0,8.0,5.0,64.0,186.4949494949495,96.06060606060606,111.61616161616162,497.6666666666667,-16.49494949494951,30.939393939393938,-26.61616161616162,-49.666666666666686
514,428,181,132,75,499,11.0,5.0,-10.0,51.0,11.0,5.0,10.0,51.0,186.66666666666666,96.41414141414141,111.4949494949495,498.09090909090907,-5.666666666666657,35.58585858585859,-36.494949494949495,0.9090909090909349
516,428,223,111,72,390,42.0,-21.0,-3.0,-109.0,42.0,21.0,3.0,109.0,187.56565656565655,96.47474747474747,111.26262626262626,496.969696969697,35.43434343434345,14.525252525252526,-39.262626262626256,-106.969696969697
505,413,201,122,68,378,-22.0,11.0,-4.0,-12.0,22.0,11.0,4.0,12.0,187.4747474747475,96.76767676767676,111.16161616161617,494.0808080808081,13.525252525252512,25.23232323232324,-43.161616161616166,-116.08080808080808
522,410,230,102,56,418,29.0,-20.0,-12.0,40.0,29.0,20.0,12.0,40.0,187.56565656565655,96.88888888888889,110.98989898989899,490.74747474747477,42.43434343434345,5.111111111111114,-54.98989898989899,-72.74747474747477
523,412,198,92,58,486,-32.0,-10.0,2.0,68.0,32.0,10.0,2.0,68.0,187.4848484848485,97.08080808080808,110.92929292929293,489.26262626262627,10.515151515151501,-5.080808080808083,-52.92929292929293,-3.26262626262627
530,397,250,84,56,597,52.0,-8.0,-2.0,111.0,52.0,8.0,2.0,111.0,187.67676767676767,97.22222222222223,110.95959595959596,489.6868686868687,62.32323232323233,-13.222222222222229,-54.95959595959596,107.3131313131313
528,396,259,89,49,782,9.0,5.0,-7.0,185.0,9.0,5.0,7.0,185.0,187.44444444444446,97.4040404040404,110.83838383838383,490.2828282828283,71.55555555555554,-8.404040404040401,-61.838383838383834,291.7171717171717
528,393,244,81,62,890,-15.0,-8.0,13.0,108.0,15.0,8.0,13.0,108.0,187.23232323232324,97.43434343434343,110.67676767676768,492.2828282828283,56.76767676767676,-16.434343434343432,-48.67676767676768,397.7171717171717
529,383,254,90,63,856,10.0,9.0,1.0,-34.0,10.0,9.0,1.0,34.0,187.31313131313132,97.48484848484848,110.38383838383838,494.2020202020202,66.68686868686868,-7.484848484848484,-47.38383838383838,361.7979797979798
533,376,290,105,88,748,36.0,15.0,25.0,-108.0,36.0,15.0,25.0,108.0,188.32323232323233,97.53535353535354,110.24242424242425,495.6969696969697,101.67676767676767,7.464646464646464,-22.24242424242425,252.3030303030303
527,384,280,113,102,734,-10.0,8.0,14.0,-14.0,10.0,8.0,14.0,14.0,189.21212121212122,97.82828282828282,110.11111111111111,497.3636363636364,90.78787878787878,15.171717171717177,-8.111111111111114,236.63636363636363
523,384,238,97,107,604,-42.0,-16.0,5.0,-130.0,42.0,16.0,5.0,130.0,189.68686868686868,98.05050505050505,109.98989898989899,497.989898989899,48.31313131313132,-1.050505050505052,-2.9898989898989896,106.01010101010098
515,388,196,99,108,484,-42.0,2.0,1.0,-120.0,42.0,2.0,1.0,120.0,189.85858585858585,98.31313131313131,109.85858585858585,496.04040404040404,6.141414141414145,0.6868686868686922,-1.8585858585858546,-12.040404040404042
507,398,165,102,111,560,-31.0,3.0,3.0,76.0,31.0,3.0,3.0,76.0,189.92929292929293,98.54545454545455,109.72727272727273,496.020202020202,-24.929292929292927,3.4545454545454533,1.2727272727272663,63.97979797979798
503,391,164,93,106,403,-1.0,-9.0,-5.0,-157.0,1.0,9.0,5.0,157.0,189.87878787878788,98.71717171717172,109.62626262626263,495.47474747474746,-25.878787878787875,-5.717171717171723,-3.62626262626263,-92.47474747474746
507,406,144,78,100,454,-20.0,-15.0,-6.0,51.0,20.0,15.0,6.0,51.0,189.8080808080808,98.86868686868686,109.53535353535354,495.5959595959596,-45.8080808080808,-20.868686868686865,-9.535353535353536,-41.595959595959584
515,428,108,80,89,389,-36.0,2.0,-11.0,-65.0,36.0,2.0,11.0,65.0,189.68686868686868,98.8989898989899,109.28282828282828,494.95959595959596,-81.68686868686868,-18.898989898989896,-20.282828282828277,-105.95959595959596
518,420,158,86,86,286,50.0,6.0,-3.0,-103.0,50.0,6.0,3.0,103.0,190.25252525252526,98.95959595959596,109.08080808080808,493.80808080808083,-32.25252525252526,-12.959595959595958,-23.080808080808083,-207.80808080808083
519,432,130,76,70,452,-28.0,-10.0,-16.0,166.0,28.0,10.0,16.0,166.0,190.63636363636363,98.87878787878788,108.83838383838383,494.4040404040404,-60.636363636363626,-22.878787878787875,-38.838383838383834,-42.404040404040416
517,464,104,77,57,492,-26.0,1.0,-13.0,40.0,26.0,1.0,13.0,40.0,190.83838383838383,98.73737373737374,108.64646464646465,496.04040404040404,-86.83838383838383,-21.737373737373744,-51.64646464646465,-4.0404040404040416
531,444,99,78,61,373,-5.0,1.0,4.0,-119.0,5.0,1.0,4.0,119.0,190.72727272727272,98.60606060606061,108.63636363636364,496.19191919191917,-91.72727272727272,-20.60606060606061,-47.63636363636364,-123.19191919191917
515,462,101,79,60,386,2.0,1.0,-1.0,13.0,2.0,1.0,1.0,13.0,190.5252525252525,98.27272727272727,108.63636363636364,496.6969696969697,-89.52525252525251,-19.272727272727266,-48.63636363636364,-110.69696969696969
507,487,109,89,70,486,8.0,10.0,10.0,100.0,8.0,10.0,10.0,100.0,190.1919191919192,97.88888888888889,108.64646464646465,498.04040404040404,-81.1919191919192,-8.888888888888886,-38.64646464646465,-12.040404040404042
502,497,100,109,76,473,-9.0,20.0,6.0,-13.0,9.0,20.0,6.0,13.0,189.88888888888889,97.65656565656566,108.56565656565657,499.17171717171715,-89.88888888888889,11.343434343434339,-32.56565656565657,-26.171717171717148
522,466,78,126,90,433,-22.0,17.0,14.0,-40.0,22.0,17.0,14.0,40.0,189.0909090909091,97.35353535353535,108.71717171717172,500.030303030303,-111.0909090909091,28.64646464646465,-18.717171717171723,-67.030303030303
498,474,80,117,103,474,2.0,-9.0,13.0,41.0,2.0,9.0,13.0,41.0,188.1919191919192,97.11111111111111,108.76767676767676,500.1111111111111,-108.1919191919192,19.888888888888886,-5.767676767676761,-26.111111111111086
506,483,93,107,100,593,13.0,-10.0,-3.0,119.0,13.0,10.0,3.0,119.0,187.56565656565655,97.08080808080808,108.72727272727273,501.0808080808081,-94.56565656565655,9.919191919191917,-8.727272727272734,91.91919191919192
524,508,123,99,96,514,30.0,-8.0,-4.0,-79.0,30.0,8.0,4.0,79.0,187.2020202020202,97.13131313131314,108.68686868686869,500.45454545454544,-64.20202020202021,1.868686868686865,-12.686868686868692,13.545454545454561
524,514,126,83,89,594,3.0,-16.0,-7.0,80.0,3.0,16.0,7.0,80.0,186.93939393939394,96.97979797979798,108.44444444444444,501.3030303030303,-60.93939393939394,-13.97979797979798,-19.444444444444443,92.69696969696969
535,492,127,70,86,620,1.0,-13.0,-3.0,26.0,1.0,13.0,3.0,26.0,186.83838383838383,96.65656565656566,108.22222222222223,501.93939393939394,-59.838383838383834,-26.65656565656566,-22.22222222222223,118.06060606060606
526,474,146,79,90,628,19.0,9.0,4.0,8.0,19.0,9.0,4.0,8.0,186.46464646464648,96.47474747474747,107.94949494949495,502.32323232323233,-40.46464646464648,-17.474747474747474,-17.949494949494948,125.67676767676767
529,456,139,79,73,504,-7.0,0.0,-17.0,-124.0,7.0,0.0,17.0,124.0,186.36363636363637,96.21212121212122,107.4949494949495,501.4949494949495,-47.363636363636374,-17.212121212121218,-34.494949494949495,2.5050505050505194
521,454,161,90,80,514,22.0,11.0,7.0,10.0,22.0,11.0,7.0,10.0,186.5252525252525,95.95959595959596,107.1010101010101,501.8989898989899,-25.52525252525251,-5.9595959595959584,-27.101010101010104,12.101010101010104
516,440,149,99,80,421,-12.0,9.0,0.0,-93.0,12.0,9.0,0.0,93.0,186.4747474747475,95.78787878787878,106.8989898989899,501.1212121212121,-37.47474747474749,3.212121212121218,-26.898989898989896,-80.12121212121212
517,437,214,114,74,390,65.0,15.0,-6.0,-31.0,65.0,15.0,6.0,31.0,186.62626262626262,95.95959595959596,106.65656565656566,500.050505050505,27.373737373737384,18.04040404040404,-32.65656565656566,-110.05050505050502
517,420,291,120,75,391,77.0,6.0,1.0,1.0,77.0,6.0,1.0,1.0,187.6060606060606,96.3030303030303,106.4949494949495,498.2828282828283,103.3939393939394,23.696969696969703,-31.494949494949495,-107.28282828282829
524,414,252,112,86,322,-39.0,-8.0,11.0,-69.0,39.0,8.0,11.0,69.0,187.6060606060606,96.62626262626263,106.54545454545455,496.80808080808083,64.3939393939394,15.37373737373737,-20.545454545454547,-174.80808080808083
529,409,227,106,79,293,-25.0,-6.0,-7.0,-29.0,25.0,6.0,7.0,29.0,187.58585858585857,96.73737373737374,106.55555555555556,494.8181818181818,39.414141414141426,9.262626262626256,-27.555555555555557,-201.8181818181818
522,409,200,101,65,352,-27.0,-5.0,-14.0,59.0,27.0,5.0,14.0,59.0,187.77777777777777,96.9090909090909,106.60606060606061,493.020202020202,12.222222222222229,4.0909090909090935,-41.60606060606061,-141.02020202020202
515,394,228,100,57,350,28.0,-1.0,-8.0,-2.0,28.0,1.0,8.0,2.0,187.8181818181818,97.13131313131314,106.61616161616162,488.7070707070707,40.18181818181819,2.868686868686865,-49.61616161616162,-138.70707070707073
529,393,295,89,55,321,67.0,-11.0,-2.0,-29.0,67.0,11.0,2.0,29.0,188.72727272727272,97.12121212121212,106.58585858585859,483.1313131313131,106.27272727272728,-8.121212121212125,-51.58585858585859,-162.1313131313131
534,394,322,101,58,435,27.0,12.0,3.0,114.0,27.0,12.0,3.0,114.0,190.27272727272728,97.26262626262626,106.42424242424242,478.8989898989899,131.72727272727272,3.737373737373744,-48.42424242424242,-43.898989898989896
541,398,297,96,71,484,-25.0,-5.0,13.0,49.0,25.0,5.0,13.0,49.0,190.76767676767676,97.35353535353535,106.4040404040404,475.72727272727275,106.23232323232324,-1.3535353535353494,-35.4040404040404,8.272727272727252
542,412,281,96,76,485,-16.0,0.0,5.0,1.0,16.0,0.0,5.0,1.0,190.8989898989899,97.47474747474747,106.24242424242425,474.030303030303,90.1010101010101,-1.474747474747474,-30.24242424242425,10.969696969696997
541,403,298,88,87,598,17.0,-8.0,11.0,113.0,17.0,8.0,11.0,113.0,190.9090909090909,97.45454545454545,106.16161616161617,474.8989898989899,107.0909090909091,-9.454545454545453,-19.161616161616166,123.1010101010101
539,387,319,84,98,533,21.0,-4.0,11.0,-65.0,21.0,4.0,11.0,65.0,191.36363636363637,97.4040404040404,106.18181818181819,475.3636363636364,127.63636363636363,-13.404040404040401,-8.181818181818187,57.636363636363626
532,379,364,98,103,518,45.0,14.0,5.0,-15.0,45.0,14.0,5.0,15.0,192.77777777777777,97.5050505050505,106.18181818181819,474.7979797979798,171.22222222222223,0.4949494949494948,-3.181818181818187,43.20202020202021
533,395,280,81,114,520,-84.0,-17.0,11.0,2.0,84.0,17.0,11.0,2.0,193.7070707070707,97.55555555555556,106.1919191919192,474.8787878787879,86.2929292929293,-16.555555555555557,7.808080808080803,45.121212121212125
529,397,236,77,123,499,-44.0,-4.0,9.0,-21.0,44.0,4.0,9.0,21.0,194.54545454545453,97.58585858585859,106.39393939393939,475.9191919191919,41.45454545454547,-20.58585858585859,16.60606060606061,23.080808080808083
524,386,229,87,115,446,-7.0,10.0,-8.0,-53.0,7.0,10.0,8.0,53.0,195.34343434343435,97.65656565656566,106.63636363636364,475.6161616161616,33.65656565656565,-10.656565656565661,8.36363636363636,-29.616161616161605
523,402,209,80,104,390,-20.0,-7.0,-11.0,-56.0,20.0,7.0,11.0,56.0,196.010101010101,97.55555555555556,106.94949494949495,474.3030303030303,12.98989898989899,-17.555555555555557,-2.949494949494948,-84.30303030303031
526,405,182,78,94,390,-27.0,-2.0,-10.0,0.0,27.0,2.0,10.0,0.0,196.32323232323233,97.53535353535354,107.16161616161617,473.19191919191917,-14.323232323232332,-19.535353535353536,-13.161616161616166,-83.19191919191917
530,397,156,73,83,325,-26.0,-5.0,-11.0,-65.0,26.0,5.0,11.0,65.0,196.25252525252526,97.4949494949495,107.25252525252525,472.16161616161617,-40.25252525252526,-24.494949494949495,-24.252525252525245,-147.16161616161617
512,440,138,74,76,344,-18.0,1.0,-7.0,19.0,18.0,1.0,7.0,19.0,195.96969696969697,97.54545454545455,107.1919191919192,471.3939393939394,-57.96969696969697,-23.545454545454547,-31.191919191919197,-127.39393939393938
530,450,112,76,65,343,-26.0,2.0,-11.0,-1.0,26.0,2.0,11.0,1.0,195.83838383838383,97.4949494949495,106.78787878787878,469.32323232323233,-83.83838383838383,-21.494949494949495,-41.78787878787878,-126.32323232323233
515,451,99,71,56,280,-13.0,-5.0,-9.0,-63.0,13.0,5.0,9.0,63.0,195.2929292929293,97.15151515151516,105.96969696969697,466.24242424242425,-96.2929292929293,-26.151515151515156,-49.96969696969697,-186.24242424242425
503,476,80,70,55,288,-19.0,-1.0,-1.0,8.0,19.0,1.0,1.0,8.0,194.66666666666666,96.87878787878788,104.78787878787878,463.2929292929293,-114.66666666666666,-26.878787878787875,-49.78787878787878,-175.29292929292927
516,477,61,72,67,306,-19.0,2.0,12.0,18.0,19.0,2.0,12.0,18.0,193.59595959595958,96.5959595959596,103.28282828282828,460.5050505050505,-132.59595959595958,-24.5959595959596,-36.28282828282828,-154.50505050505052
513,487,93,72,74,296,32.0,0.0,7.0,-10.0,32.0,0.0,7.0,10.0,193.010101010101,96.31313131313131,102.01010101010101,457.5959595959596,-100.01010101010101,-24.313131313131308,-28.01010101010101,-161.59595959595958
534,474,120,72,74,347,27.0,0.0,0.0,51.0,27.0,0.0,0.0,51.0,192.66666666666666,95.87878787878788,100.4949494949495,455.8484848484849,-72.66666666666666,-23.878787878787875,-26.494949494949495,-108.84848484848487
521,482,112,85,81,388,-8.0,13.0,7.0,41.0,8.0,13.0,7.0,41.0,192.21212121212122,95.43434343434343,99.04040404040404,455.2020202020202,-80.21212121212122,-10.434343434343432,-18.04040404040404,-67.20202020202021
514,501,118,80,94,428,6.0,-5.0,13.0,40.0,6.0,5.0,13.0,40.0,191.8080808080808,94.73737373737374,97.85858585858585,455.0,-73.8080808080808,-14.737373737373744,-3.8585858585858546,-27.0
508,515,100,84,93,408,-18.0,4.0,-1.0,-20.0,18.0,4.0,1.0,20.0,190.8989898989899,94.25252525252525,96.86868686868686,455.26262626262627,-90.8989898989899,-10.252525252525245,-3.868686868686865,-47.26262626262627
521,533,91,115,122,451,-9.0,31.0,29.0,43.0,9.0,31.0,29.0,43.0,190.22222222222223,94.06060606060606,96.33333333333333,455.3131313131313,-99.22222222222223,20.939393939393938,25.66666666666667,-4.313131313131294
527,528,115,116,114,551,24.0,1.0,-8.0,100.0,24.0,1.0,8.0,100.0,189.32323232323233,93.96969696969697,96.0,455.4646464646465,-74.32323232323233,22.03030303030303,18.0,95.53535353535352
516,518,262,121,102,627,147.0,5.0,-12.0,76.0,147.0,5.0,12.0,76.0,189.1818181818182,94.03030303030303,95.6969696969697,457.09090909090907,72.81818181818181,26.96969696969697,6.303030303030297,169.90909090909093
522,522,264,124,95,792,2.0,3.0,-7.0,165.0,2.0,3.0,7.0,165.0,189.63636363636363,94.03030303030303,95.52525252525253,460.1313131313131,74.36363636363637,29.96969696969697,-0.525252525252526,331.8686868686869
541,494,245,120,83,867,-19.0,-4.0,-12.0,75.0,19.0,4.0,12.0,75.0,189.2828282828283,94.11111111111111,95.4949494949495,464.62626262626264,55.71717171717171,25.888888888888886,-12.494949494949495,402.37373737373736
533,472,185,111,82,751,-60.0,-9.0,-1.0,-116.0,60.0,9.0,1.0,116.0,187.87878787878788,94.25252525252525,95.61616161616162,468.4141414141414,-2.8787878787878753,16.747474747474755,-13.61616161616162,282.5858585858586
539,447,168,132,83,572,-17.0,21.0,1.0,-179.0,17.0,21.0,1.0,179.0,186.5050505050505,94.34343434343434,95.75757575757575,469.90909090909093,-18.50505050505049,37.65656565656566,-12.75757575757575,102.09090909090907
528,401,141,117,73,541,-27.0,-15.0,-10.0,-31.0,27.0,15.0,10.0,31.0,184.95959595959596,94.44444444444444,95.6969696969697,471.3939393939394,-43.95959595959596,22.555555555555557,-22.696969696969703,69.60606060606062
517,395,122,122,71,515,-19.0,5.0,-2.0,-26.0,19.0,5.0,2.0,26.0,183.6060606060606,94.79797979797979,95.36363636363636,471.35353535353534,-61.606060606060595,27.202020202020208,-24.36363636363636,43.646464646464665
533,414,191,113,84,574,69.0,-9.0,13.0,59.0,69.0,9.0,13.0,59.0,182.6060606060606,95.14141414141415,94.88888888888889,471.90909090909093,8.393939393939405,17.858585858585855,-10.888888888888886,102.09090909090907
549,431,186,92,82,552,-5.0,-21.0,-2.0,-22.0,5.0,21.0,2.0,22.0,180.3030303030303,95.18181818181819,94.05050505050505,472.06060606060606,5.696969696969688,-3.181818181818187,-12.050505050505052,79.93939393939394
536,418,212,88,72,519,26.0,-4.0,-10.0,-33.0,26.0,4.0,10.0,33.0,179.2828282828283,95.23232323232324,92.98989898989899,471.55555555555554,32.71717171717171,-7.232323232323239,-20.98989898989899,47.44444444444446
545,401,369,89,63,624,157.0,1.0,-9.0,105.0,157.0,1.0,9.0,105.0,179.6060606060606,95.22222222222223,91.60606060606061,472.77777777777777,189.3939393939394,-6.2222222222222285,-28.60606060606061,151.22222222222223
541,399,424,96,67,592,55.0,7.0,4.0,-32.0,55.0,7.0,4.0,32.0,180.88888888888889,95.26262626262626,90.23232323232324,473.6161616161616,243.11111111111111,0.7373737373737441,-23.23232323232324,118.3838383838384
545,405,406,104,71,591,-18.0,8.0,4.0,-1.0,18.0,8.0,4.0,1.0,182.55555555555554,95.53535353535354,88.8080808080808,474.949494949495,223.44444444444446,8.464646464646464,-17.808080808080803,116.05050505050502
548,388,393,107,94,606,-13.0,3.0,23.0,15.0,13.0,3.0,23.0,15.0,184.2929292929293,95.83838383838383,87.68686868686869,477.1010101010101,208.7070707070707,11.161616161616166,6.313131313131308,128.8989898989899
545,376,353,99,109,689,-40.0,-8.0,15.0,83.0,40.0,8.0,15.0,83.0,185.8080808080808,95.9090909090909,86.79797979797979,480.5656565656566,167.1919191919192,3.0909090909090935,22.202020202020208,208.43434343434342
539,377,313,129,136,619,-40.0,30.0,27.0,-70.0,40.0,30.0,27.0,70.0,187.3030303030303,96.25252525252525,86.28282828282828,483.1010101010101,125.69696969696969,32.747474747474755,49.71717171717172,135.8989898989899
536,390,266,118,147,586,-47.0,-11.0,11.0,-33.0,47.0,11.0,11.0,33.0,188.68686868686868,96.58585858585859,85.86868686868686,485.4141414141414,77.31313131313132,21.41414141414141,61.131313131313135,100.5858585858586
526,390,224,128,153,556,-42.0,10.0,6.0,-30.0,42.0,10.0,6.0,30.0,189.82828282828282,97.05050505050505,85.72727272727273,488.1515151515151,34.17171717171718,30.949494949494948,67.27272727272727,67.84848484848487
521,369,285,104,168,455,61.0,-24.0,15.0,-101.0,61.0,24.0,15.0,101.0,191.67676767676767,97.25252525252525,85.86868686868686,489.979797979798,93.32323232323233,6.7474747474747545,82.13131313131314,-34.97979797979798
523,399,196,99,160,469,-89.0,-5.0,-8.0,14.0,89.0,5.0,8.0,14.0,192.4747474747475,97.42424242424242,86.27272727272727,491.57575757575756,3.5252525252525118,1.575757575757578,73.72727272727273,-22.575757575757564
516,399,216,107,167,374,20.0,8.0,7.0,-95.0,20.0,8.0,7.0,95.0,193.2828282828283,97.48484848484848,87.04040404040404,492.3131313131313,22.71717171717171,9.515151515151516,79.95959595959596,-118.3131313131313
519,400,165,91,152,444,-51.0,-16.0,-15.0,70.0,51.0,16.0,15.0,70.0,193.4848484848485,97.46464646464646,87.84848484848484,493.83838383838383,-28.4848484848485,-6.464646464646464,64.15151515151516,-49.838383838383834
515,438,125,102,134,439,-40.0,11.0,-18.0,-5.0,40.0,11.0,18.0,5.0,193.34343434343435,97.55555555555556,88.54545454545455,494.4646464646465,-68.34343434343435,4.444444444444443,45.45454545454545,-55.46464646464648
523,434,104,88,125,475,-21.0,-14.0,-9.0,36.0,21.0,14.0,9.0,36.0,193.07070707070707,97.54545454545455,89.12121212121212,495.74747474747477,-89.07070707070707,-9.545454545454547,35.878787878787875,-20.74747474747477
522,428,116,90,105,417,12.0,2.0,-20.0,-58.0,12.0,2.0,20.0,58.0,192.77777777777777,97.35353535353535,89.47474747474747,495.72727272727275,-76.77777777777777,-7.353535353535349,15.525252525252526,-78.72727272727275
535,452,111,83,99,469,-5.0,-7.0,-6.0,52.0,5.0,7.0,6.0,52.0,192.5252525252525,97.20202020202021,89.56565656565657,496.75757575757575,-81.52525252525251,-14.202020202020208,9.434343434343432,-27.75757575757575
526,463,98,93,78,442,-13.0,10.0,-21.0,-27.0,13.0,10.0,21.0,27.0,192.15151515151516,97.18181818181819,89.48484848484848,496.8888888888889,-94.15151515151516,-4.181818181818187,-11.484848484848484,-54.888888888888914
531,465,193,100,68,449,95.0,7.0,-10.0,7.0,95.0,7.0,10.0,7.0,192.96969696969697,97.14141414141415,89.11111111111111,496.7171717171717,0.030303030303031164,2.8585858585858546,-21.111111111111114,-47.71717171717171
526,460,180,98,59,411,-13.0,-2.0,-9.0,-38.0,13.0,2.0,9.0,38.0,193.27272727272728,96.97979797979798,88.74747474747475,494.8787878787879,-13.27272727272728,1.0202020202020208,-29.747474747474755,-83.87878787878788
499,469,166,115,51,358,-14.0,17.0,-8.0,-53.0,14.0,17.0,8.0,53.0,193.05050505050505,97.06060606060606,88.14141414141415,492.5050505050505,-27.050505050505052,17.939393939393938,-37.141414141414145,-134.50505050505052
500,485,163,107,43,388,-3.0,-8.0,-8.0,30.0,3.0,8.0,8.0,30.0,192.77777777777777,97.08080808080808,87.57575757575758,490.74747474747477,-29.77777777777777,9.919191919191917,-44.57575757575758,-102.74747474747477
526,465,150,102,61,415,-13.0,-5.0,18.0,27.0,13.0,5.0,18.0,27.0,192.57575757575756,97.13131313131314,87.24242424242425,490.1515151515151,-42.575757575757564,4.868686868686865,-26.24242424242425,-75.15151515151513
511,510,129,118,64,442,-21.0,16.0,3.0,27.0,21.0,16.0,3.0,27.0,192.5050505050505,97.12121212121212,86.97979797979798,489.44444444444446,-63.50505050505049,20.878787878787875,-22.97979797979798,-47.44444444444446
508,518,148,129,65,455,19.0,11.0,1.0,13.0,19.0,11.0,1.0,13.0,192.2828282828283,97.14141414141415,86.77777777777777,489.5151515151515,-44.28282828282829,31.858585858585855,-21.77777777777777,-34.5151515151515
514,533,139,148,82,448,-9.0,19.0,17.0,-7.0,9.0,19.0,17.0,7.0,191.85858585858585,97.3030303030303,86.84848484848484,489.0,-52.858585858585855,50.6969696969697,-4.848484848484844,-41.0
517,516,127,145,80,448,-12.0,-3.0,-2.0,0.0,12.0,3.0,2.0,0.0,190.88888888888889,97.64646464646465,86.92929292929293,489.5858585858586,-63.888888888888886,47.35353535353535,-6.929292929292927,-41.5858585858586
511,499,157,140,74,428,30.0,-5.0,-6.0,-20.0,30.0,5.0,6.0,20.0,190.44444444444446,97.82828282828282,86.98989898989899,490.09090909090907,-33.44444444444446,42.17171717171718,-12.98989898989899,-62.090909090909065
510,474,164,203,78,501,7.0,63.0,4.0,73.0,7.0,63.0,4.0,73.0,189.77777777777777,98.84848484848484,87.21212121212122,490.92929292929296,-25.77777777777777,104.15151515151516,-9.212121212121218,10.070707070707044
505,457,151,191,67,412,-13.0,-12.0,-11.0,-89.0,13.0,12.0,11.0,89.0,189.3030303030303,99.84848484848484,87.3030303030303,490.1818181818182,-38.30303030303031,91.15151515151516,-20.303030303030297,-78.18181818181819
496,447,178,178,68,421,27.0,-13.0,1.0,9.0,27.0,13.0,1.0,9.0,188.57575757575756,100.79797979797979,87.42424242424242,488.4040404040404,-10.575757575757564,77.20202020202021,-19.424242424242422,-67.40404040404042
500,439,147,174,98,459,-31.0,-4.0,30.0,38.0,31.0,4.0,30.0,38.0,187.44444444444446,101.65656565656566,87.91919191919192,485.14141414141415,-40.44444444444446,72.34343434343434,10.080808080808083,-26.141414141414145
494,408,159,159,78,566,12.0,-15.0,-20.0,107.0,12.0,15.0,20.0,107.0,186.58585858585857,102.44444444444444,88.08080808080808,481.8686868686869,-27.585858585858574,56.55555555555556,-10.080808080808083,84.1313131313131
504,398,168,160,91,528,9.0,1.0,13.0,-38.0,9.0,1.0,13.0,38.0,185.7171717171717,103.15151515151516,88.36363636363636,478.55555555555554,-17.71717171717171,56.848484848484844,2.6363636363636402,49.44444444444446
508,401,191,132,80,552,23.0,-28.0,-11.0,24.0,23.0,28.0,11.0,24.0,184.7171717171717,103.42424242424242,88.28282828282828,476.57575757575756,6.282828282828291,28.575757575757578,-8.282828282828277,75.42424242424244
513,393,196,122,71,631,5.0,-10.0,-9.0,79.0,5.0,10.0,9.0,79.0,183.86868686868686,103.51515151515152,87.96969696969697,475.5353535353535,12.131313131313135,18.484848484848484,-16.96969696969697,155.46464646464648
527,374,254,126,75,590,58.0,4.0,4.0,-41.0,58.0,4.0,4.0,41.0,184.03030303030303,103.8080808080808,87.64646464646465,475.3939393939394,69.96969696969697,22.191919191919197,-12.64646464646465,114.60606060606062
527,377,255,131,74,584,1.0,5.0,-1.0,-6.0,1.0,5.0,1.0,6.0,184.62626262626262,104.13131313131314,87.3030303030303,476.4040404040404,70.37373737373738,26.868686868686865,-13.303030303030297,107.59595959595958
521,377,239,127,94,565,-16.0,-4.0,20.0,-19.0,16.0,4.0,20.0,19.0,185.37373737373738,104.38383838383838,87.13131313131314,476.45454545454544,53.626262626262616,22.61616161616162,6.868686868686865,88.54545454545456
